{"learner":{"attributes":{"scikit_learn":"{\"_estimator_type\": \"classifier\"}"},"feature_names":[],"feature_types":[],"gradient_booster":{"model":{"gbtree_model_param":{"num_parallel_tree":"1","num_trees":"100"},"iteration_indptr":[0,1,2,3,4,5,6,7,8,9,10,11,12,13,14,15,16,17,18,19,20,21,22,23,24,25,26,27,28,29,30,31,32,33,34,35,36,37,38,39,40,41,42,43,44,45,46,47,48,49,50,51,52,53,54,55,56,57,58,59,60,61,62,63,64,65,66,67,68,69,70,71,72,73,74,75,76,77,78,79,80,81,82,83,84,85,86,87,88,89,90,91,92,93,94,95,96,97,98,99,100],"tree_info":[0,0,0,0,0,0,0,0,0,0,0,0,0,0,0,0,0,0,0,0,0,0,0,0,0,0,0,0,0,0,0,0,0,0,0,0,0,0,0,0,0,0,0,0,0,0,0,0,0,0,0,0,0,0,0,0,0,0,0,0,0,0,0,0,0,0,0,0,0,0,0,0,0,0,0,0,0,0,0,0,0,0,0,0,0,0,0,0,0,0,0,0,0,0,0,0,0,0,0,0],"trees":[{"base_weights":[-7.070994E-8,-1.403786E0,6.386834E-1,-1.7477355E0,7.561069E-1,-4.3819536E-2,1.5502777E0,-1.9780204E0,-2.2071466E-1,-1.014792E0,1.3585569E0,1.320895E0,-9.1632587E-1,5.316432E-1,1.6460168E0,-2.0729563E0,5.7321195E-2,-1.1359875E0,6.945289E-1,-1.6792194E0,7.780452E-1,-1.0082271E0,1.5886886E0,-3.206113E-1,1.6388818E0,7.0827025E-1,-1.5933417E0,-1.8172738E-1,1.2907627E0,4.5269537E-1,1.6820266E0,-2.120675E0,9.075412E-1,-1.6479166E0,9.85024E-1,-1.6164926E0,1.3734115E0,9.962516E-1,-1.6483494E0,-1.9342679E0,9.057978E-1,-6.579567E-1,1.3365427E0,-1.5967345E0,4.0221122E-1,-3.503215E-2,1.7135999E0,1.0587488E0,-1.1891906E0,-5.137537E-1,1.7031772E0,-1.0263625E0,1.1714088E0,-5.365407E-1,-1.941214E0,3.4253964E-1,-1.7052207E0,1.4505174E0,-1.7620344E-1,-1.0949227E0,1.3691046E0,-9.95304E-1,1.6908302E0,-4.1081956E-1,-6.530082E-1,-1.8551019E-1,4.673643E-1,-5.9265566E-1,-9.769941E-2,-3.277744E-1,3.9396846E-1,-5.510832E-1,2.2158197E-1,-3.493968E-1,4.8281655E-1,-2.2069176E-1,3.7639186E-1,-5.858246E-1,2.316894E-2,-6.281526E-1,1.864622E-1,-2.8393131E-1,4.5075706E-1,1.4537966E-1,-5.3413266E-1,-3.1962517E-1,4.8015863E-1,1.8441951E-1,-5.589526E-1,-3.2826337E-1,3.2263684E-1,-1.03546515E-1,5.286936E-1,4.3564317E-1,-2.8098375E-1,2.194797E-1,-5.4654264E-1,-5.57601E-1,2.2187416E-1,5.1607305E-1,-4.503831E-1,1.5341051E-1,-4.8754683E-1,-4.046526E-1,4.1076246E-1,-4.3746355E-1,1.3219011E-1,-1.9307192E-1,-6.161333E-1,-4.606884E-1,2.3264313E-1,-5.876952E-1,3.7076172E-1,4.5292896E-1,-2.8143612E-1,-4.4195127E-1,3.2999924E-1,-4.3466154E-1,4.0993518E-1,4.623119E-1,-4.6777835E-1,3.4054378E-1,-5.000969E-1,3.156963E-1,5.177726E-1],"categories":[],"categories_nodes":[],"categories_segments":[],"categories_sizes":[],"default_left":[0,0,0,0,0,0,0,0,0,0,0,0,0,0,0,0,0,0,0,0,0,0,0,0,0,0,0,0,0,0,0,0,0,0,0,0,0,0,0,0,0,0,0,0,0,0,0,0,0,0,0,0,0,0,0,0,0,0,0,0,0,0,0,0,0,0,0,0,0,0,0,0,0,0,0,0,0,0,0,0,0,0,0,0,0,0,0,0,0,0,0,0,0,0,0,0,0,0,0,0,0,0,0,0,0,0,0,0,0,0,0,0,0,0,0,0,0,0,0,0,0,0,0,0,0],"id":0,"left_children":[1,3,5,7,9,11,13,15,17,19,21,23,25,27,29,31,33,35,37,39,41,43,45,47,49,51,53,55,57,59,61,63,65,67,69,71,73,75,77,79,81,83,85,87,-1,89,91,93,95,97,99,101,103,105,107,109,111,113,115,117,119,121,123,-1,-1,-1,-1,-1,-1,-1,-1,-1,-1,-1,-1,-1,-1,-1,-1,-1,-1,-1,-1,-1,-1,-1,-1,-1,-1,-1,-1,-1,-1,-1,-1,-1,-1,-1,-1,-1,-1,-1,-1,-1,-1,-1,-1,-1,-1,-1,-1,-1,-1,-1,-1,-1,-1,-1,-1,-1,-1,-1,-1,-1,-1],"loss_changes":[8.66044E3,2.2452573E3,4.130589E3,9.1593115E2,4.4479938E2,4.5229673E3,2.763296E2,4.376416E2,2.877968E2,1.276634E2,1.7074976E2,7.737903E2,2.5496284E3,1.3327869E2,1.10867676E2,3.0961816E2,1.6279477E2,2.092334E2,1.2318007E2,5.2986206E1,2.4430346E1,4.1029243E1,5.7543335E1,2.9028543E2,1.7265942E2,5.4931085E2,6.003379E2,1.0244713E2,2.8178284E1,1.1136053E2,6.111133E1,8.664551E1,3.5489037E1,1.506842E1,4.6854652E1,7.640622E1,1.8723293E1,6.9362915E1,1.0652077E1,3.027832E1,9.888072E0,1.226798E1,1.5320435E1,1.4669331E1,0E0,2.6142447E1,2.700293E1,7.4944084E1,1.8177766E2,6.3346397E1,6.8503174E1,1.3370532E2,2.705163E2,3.667486E2,1.783877E2,7.901946E1,2.6914703E1,1.6637054E1,2.2463835E1,2.756276E1,2.7122864E1,1.4617972E1,5.4478516E1,0E0,0E0,0E0,0E0,0E0,0E0,0E0,0E0,0E0,0E0,0E0,0E0,0E0,0E0,0E0,0E0,0E0,0E0,0E0,0E0,0E0,0E0,0E0,0E0,0E0,0E0,0E0,0E0,0E0,0E0,0E0,0E0,0E0,0E0,0E0,0E0,0E0,0E0,0E0,0E0,0E0,0E0,0E0,0E0,0E0,0E0,0E0,0E0,0E0,0E0,0E0,0E0,0E0,0E0,0E0,0E0,0E0,0E0,0E0,0E0,0E0,0E0],"parents":[2147483647,0,0,1,1,2,2,3,3,4,4,5,5,6,6,7,7,8,8,9,9,10,10,11,11,12,12,13,13,14,14,15,15,16,16,17,17,18,18,19,19,20,20,21,21,22,22,23,23,24,24,25,25,26,26,27,27,28,28,29,29,30,30,31,31,32,32,33,33,34,34,35,35,36,36,37,37,38,38,39,39,40,40,41,41,42,42,43,43,45,45,46,46,47,47,48,48,49,49,50,50,51,51,52,52,53,53,54,54,55,55,56,56,57,57,58,58,59,59,60,60,61,61,62,62],"right_children":[2,4,6,8,10,12,14,16,18,20,22,24,26,28,30,32,34,36,38,40,42,44,46,48,50,52,54,56,58,60,62,64,66,68,70,72,74,76,78,80,82,84,86,88,-1,90,92,94,96,98,100,102,104,106,108,110,112,114,116,118,120,122,124,-1,-1,-1,-1,-1,-1,-1,-1,-1,-1,-1,-1,-1,-1,-1,-1,-1,-1,-1,-1,-1,-1,-1,-1,-1,-1,-1,-1,-1,-1,-1,-1,-1,-1,-1,-1,-1,-1,-1,-1,-1,-1,-1,-1,-1,-1,-1,-1,-1,-1,-1,-1,-1,-1,-1,-1,-1,-1,-1,-1,-1,-1],"split_conditions":[-1.3202811E-2,6.6332065E-2,-4.4842924E-8,5.305878E-2,1.2829028E-2,-5.867532E-2,-2.6576087E-2,-3.594821E-8,1.6184929E-3,-4.1558508E-8,9.811751E-3,1.213133E-2,-9.026068E-33,-3.7028034E-8,-6.693271E-2,1.5183581E-32,1.687515E-2,1.0557961E-32,5.3179022E-2,4.9804978E-2,1.056032E-2,9.6272245E-2,-3.5018094E-2,-8.319227E-33,-6.995635E-2,-1.3803347E-3,-3.8909942E-2,4.8480462E-2,5.117647E-2,-3.6472272E-8,-8.3433785E-2,-5.7807807E-2,-8.193353E-6,3.1745676E-2,-2.0692928E-2,-3.360085E-8,-8.456793E-2,-3.8146418E-2,3.5280712E-2,1.0268508E-32,-3.2603078E-2,-2.4183044E-2,-5.5371713E-2,-8.8068865E-2,4.0221122E-1,2.22348E-2,-1.8405778E-2,1.000473E-2,-7.389592E-2,-2.080814E-2,5.6088492E-2,-4.798637E-2,-3.482559E-2,2.5860309E-3,-3.374278E-2,-4.8619483E-2,7.163241E-2,7.515574E-2,-4.5178062E-4,5.3535517E-33,6.829734E-2,-2.6272846E-2,-4.1637618E-2,-4.1081956E-1,-6.530082E-1,-1.8551019E-1,4.673643E-1,-5.9265566E-1,-9.769941E-2,-3.277744E-1,3.9396846E-1,-5.510832E-1,2.2158197E-1,-3.493968E-1,4.8281655E-1,-2.2069176E-1,3.7639186E-1,-5.858246E-1,2.316894E-2,-6.281526E-1,1.864622E-1,-2.8393131E-1,4.5075706E-1,1.4537966E-1,-5.3413266E-1,-3.1962517E-1,4.8015863E-1,1.8441951E-1,-5.589526E-1,-3.2826337E-1,3.2263684E-1,-1.03546515E-1,5.286936E-1,4.3564317E-1,-2.8098375E-1,2.194797E-1,-5.4654264E-1,-5.57601E-1,2.2187416E-1,5.1607305E-1,-4.503831E-1,1.5341051E-1,-4.8754683E-1,-4.046526E-1,4.1076246E-1,-4.3746355E-1,1.3219011E-1,-1.9307192E-1,-6.161333E-1,-4.606884E-1,2.3264313E-1,-5.876952E-1,3.7076172E-1,4.5292896E-1,-2.8143612E-1,-4.4195127E-1,3.2999924E-1,-4.3466154E-1,4.0993518E-1,4.623119E-1,-4.6777835E-1,3.4054378E-1,-5.000969E-1,3.156963E-1,5.177726E-1],"split_indices":[228,304,319,240,49,96,350,319,133,319,76,61,223,319,79,127,200,127,276,352,63,200,28,223,28,6,161,276,214,319,285,161,7,100,285,319,246,322,345,127,68,193,5,98,0,211,233,162,98,226,161,77,240,233,264,17,212,103,202,127,205,343,133,0,0,0,0,0,0,0,0,0,0,0,0,0,0,0,0,0,0,0,0,0,0,0,0,0,0,0,0,0,0,0,0,0,0,0,0,0,0,0,0,0,0,0,0,0,0,0,0,0,0,0,0,0,0,0,0,0,0,0,0,0,0],"split_type":[0,0,0,0,0,0,0,0,0,0,0,0,0,0,0,0,0,0,0,0,0,0,0,0,0,0,0,0,0,0,0,0,0,0,0,0,0,0,0,0,0,0,0,0,0,0,0,0,0,0,0,0,0,0,0,0,0,0,0,0,0,0,0,0,0,0,0,0,0,0,0,0,0,0,0,0,0,0,0,0,0,0,0,0,0,0,0,0,0,0,0,0,0,0,0,0,0,0,0,0,0,0,0,0,0,0,0,0,0,0,0,0,0,0,0,0,0,0,0,0,0,0,0,0,0],"sum_hessian":[9.657474E3,3.019533E3,6.6379404E3,2.6049082E3,4.1462463E2,3.7964915E3,2.841449E3,2.263293E3,3.4161517E2,1.0507442E2,3.095502E2,1.4804147E3,2.316077E3,2.4468033E2,2.5967686E3,2.1624116E3,1.008813E2,1.7068427E2,1.7093091E2,7.670926E1,2.8365158E1,2.7131891E1,2.8241833E2,2.4024057E2,1.2401741E3,6.8125714E2,1.6348198E3,1.2653327E2,1.1814706E2,7.64626E1,2.5203062E3,2.12862E3,3.379154E1,3.5271458E1,6.560985E1,1.4355237E2,2.7131891E1,1.519386E2,1.8992325E1,7.004961E1,6.659646E0,7.892914E0,2.0472244E1,2.1952168E1,5.1797247E0,2.0225592E1,2.6219272E2,9.274174E1,1.4749883E2,3.5764767E1,1.2044093E3,1.4330571E2,5.379514E2,4.0549844E2,1.2293213E3,9.4714966E1,3.181831E1,1.0655434E2,1.1592717E1,2.8365158E1,4.8097443E1,7.892914E0,2.512413E3,1.4947206E2,1.9791482E3,1.0112796E1,2.3678741E1,2.7871853E1,7.3996067E0,8.6328745E0,5.697697E1,1.3146634E2,1.2086024E1,1.9732285E0,2.5158663E1,1.948563E1,1.3245296E2,1.6032482E1,2.9598427E0,6.610315E1,3.946457E0,1.4799213E0,5.1797247E0,4.1931105E0,3.6998034E0,1.7265749E0,1.874567E1,2.219882E0,1.9732285E1,1.0359449E1,9.866142E0,5.9196854E0,2.5627304E2,7.769587E1,1.5045867E1,3.6504726E1,1.109941E2,1.7019096E1,1.874567E1,1.1984896E3,5.9196854E0,4.020453E1,1.0310119E2,3.872461E1,4.992268E2,2.0842226E2,1.9707619E2,9.866142E1,1.1306599E3,1.7265749E1,7.744922E1,2.9598427E1,2.219882E0,1.0433446E2,2.219882E0,5.673032E0,5.9196854E0,2.5158663E1,3.2064962E0,4.5877563E1,2.219882E0,1.7265749E0,6.166339E0,1.3245296E2,2.3799602E3],"tree_param":{"num_deleted":"0","num_feature":"387","num_nodes":"125","size_leaf_vector":"1"}},{"base_weights":[1.3641433E-2,-5.105269E-1,1.0328748E0,9.008962E-1,-9.5945436E-1,-6.437834E-1,1.1974937E0,1.1651247E0,-1.0441537E0,4.991262E-1,-1.2992052E0,-1.049159E0,6.8055445E-1,4.0155047E-1,1.312003E0,-8.404355E-1,1.3070037E0,9.8881346E-1,-1.5205643E0,-7.390584E-1,1.0027019E0,-5.264255E-1,-1.4887308E0,-1.471516E0,-1.34778E-1,-1.102909E0,1.1235026E0,-2.8038776E-1,1.0401598E0,1.3407496E0,-4.5702824E-1,6.33431E-1,-1.343565E0,1.3846256E0,-2.4310529E-1,1.3390983E0,-6.217712E-1,3.4997377E-1,-1.6343749E0,-1.2742975E0,8.897377E-1,1.2153331E0,-8.7896484E-1,4.0246814E-1,-1.2369294E0,-9.4931006E-1,-1.5905932E0,6.4645624E-1,-1.5192221E0,-1.3446314E0,6.546338E-1,2.97893E-1,-1.5144756E0,-8.215829E-1,1.3321515E0,1.2926917E0,-8.7014896E-1,1.2807181E0,7.5881146E-2,-1.3097034E-1,1.3613453E0,1.0423344E0,-1.5134124E0,4.175168E-1,-1.7855668E-1,-4.891158E-1,1.5821207E-2,-1.0873625E-1,4.2463058E-1,-3.8005373E-1,3.7024006E-1,4.260564E-1,-8.262023E-2,-3.8742715E-1,2.2799392E-1,4.2167854E-1,-2.5986162E-1,-5.0369453E-1,1.3327631E-1,-4.373465E-1,3.772349E-1,3.9364767E-1,-2.9044226E-1,6.008087E-2,4.1701147E-1,-4.2978513E-1,2.5098008E-1,-3.9063892E-1,2.4711801E-1,-4.6258944E-1,1.4833685E-2,-4.4595402E-1,-5.2230466E-2,-4.7926652E-1,1.3373771E-1,3.636942E-1,-1.0436948E-1,1.6631733E-1,-4.675682E-1,3.5962823E-1,-4.8229727E-1,-1.23705596E-1,3.620106E-1,-4.8832336E-1,-8.136794E-2,2.5158754E-1,-4.2472228E-1,-1.4978594E-1,4.3852082E-1,4.3710178E-1,-3.3344358E-1,4.5601642E-1,-3.2471907E-1,-1.9055435E-1,4.0562323E-1,2.0990436E-1,-4.0049535E-1,-3.132507E-1,2.3348765E-1,-1.9975574E-1,4.115927E-1,-2.6921248E-1,4.0460002E-1,-5.2575076E-1,2.1369451E-1],"categories":[],"categories_nodes":[],"categories_segments":[],"categories_sizes":[],"default_left":[0,0,0,0,0,0,0,0,0,0,0,0,0,0,0,0,0,0,0,0,0,0,0,0,0,0,0,0,0,0,0,0,0,0,0,0,0,0,0,0,0,0,0,0,0,0,0,0,0,0,0,0,0,0,0,0,0,0,0,0,0,0,0,0,0,0,0,0,0,0,0,0,0,0,0,0,0,0,0,0,0,0,0,0,0,0,0,0,0,0,0,0,0,0,0,0,0,0,0,0,0,0,0,0,0,0,0,0,0,0,0,0,0,0,0,0,0,0,0,0,0,0,0,0,0],"id":1,"left_children":[1,3,5,7,9,11,13,15,17,19,21,23,25,27,29,31,33,35,37,39,41,43,45,47,49,51,53,55,57,59,61,63,65,67,69,71,73,75,77,79,81,83,85,87,89,91,93,95,97,99,101,-1,103,105,107,109,111,113,115,117,119,121,123,-1,-1,-1,-1,-1,-1,-1,-1,-1,-1,-1,-1,-1,-1,-1,-1,-1,-1,-1,-1,-1,-1,-1,-1,-1,-1,-1,-1,-1,-1,-1,-1,-1,-1,-1,-1,-1,-1,-1,-1,-1,-1,-1,-1,-1,-1,-1,-1,-1,-1,-1,-1,-1,-1,-1,-1,-1,-1,-1,-1,-1,-1],"loss_changes":[4.8179062E3,3.7743547E3,8.4610645E2,7.400686E2,2.239935E3,1.4806474E2,2.5369165E2,3.613811E2,1.6854272E2,5.334955E2,5.360459E2,8.111087E1,5.253381E1,1.5369308E2,1.2459326E2,6.3335663E1,1.4266614E2,1.964701E1,3.0401276E1,2.169971E2,2.4425891E2,4.7794983E2,1.601919E2,1.5523407E1,6.546507E1,1.308234E1,2.2404587E1,1.5989203E2,4.2147278E1,7.2901855E1,6.450479E1,2.143999E1,2.5372398E1,6.115625E1,8.815799E1,4.018749E0,7.125706E0,1.2592188E1,1.3008972E1,8.861667E1,4.979547E1,9.664166E1,6.036489E1,2.26753E2,1.6101355E2,1.9544269E2,3.5785156E1,2.6002402E0,1.2369415E1,2.0008617E1,2.4998793E1,0E0,1.1942463E0,6.81528E0,1.2074753E1,2.0212616E1,6.5093445E1,2.0777267E1,3.3871056E1,2.9064672E1,5.1905273E1,1.1319738E1,1.3868542E1,0E0,0E0,0E0,0E0,0E0,0E0,0E0,0E0,0E0,0E0,0E0,0E0,0E0,0E0,0E0,0E0,0E0,0E0,0E0,0E0,0E0,0E0,0E0,0E0,0E0,0E0,0E0,0E0,0E0,0E0,0E0,0E0,0E0,0E0,0E0,0E0,0E0,0E0,0E0,0E0,0E0,0E0,0E0,0E0,0E0,0E0,0E0,0E0,0E0,0E0,0E0,0E0,0E0,0E0,0E0,0E0,0E0,0E0,0E0,0E0,0E0,0E0],"parents":[2147483647,0,0,1,1,2,2,3,3,4,4,5,5,6,6,7,7,8,8,9,9,10,10,11,11,12,12,13,13,14,14,15,15,16,16,17,17,18,18,19,19,20,20,21,21,22,22,23,23,24,24,25,25,26,26,27,27,28,28,29,29,30,30,31,31,32,32,33,33,34,34,35,35,36,36,37,37,38,38,39,39,40,40,41,41,42,42,43,43,44,44,45,45,46,46,47,47,48,48,49,49,50,50,52,52,53,53,54,54,55,55,56,56,57,57,58,58,59,59,60,60,61,61,62,62],"right_children":[2,4,6,8,10,12,14,16,18,20,22,24,26,28,30,32,34,36,38,40,42,44,46,48,50,52,54,56,58,60,62,64,66,68,70,72,74,76,78,80,82,84,86,88,90,92,94,96,98,100,102,-1,104,106,108,110,112,114,116,118,120,122,124,-1,-1,-1,-1,-1,-1,-1,-1,-1,-1,-1,-1,-1,-1,-1,-1,-1,-1,-1,-1,-1,-1,-1,-1,-1,-1,-1,-1,-1,-1,-1,-1,-1,-1,-1,-1,-1,-1,-1,-1,-1,-1,-1,-1,-1,-1,-1,-1,-1,-1,-1,-1,-1,-1,-1,-1,-1,-1,-1,-1,-1,-1],"split_conditions":[-4.434202E-8,-6.4450555E-2,-3.6547992E-2,2.8956952E-2,-9.523789E-33,6.1444964E-2,-2.6289577E-2,-2.0433724E-2,-1.2082144E-2,3.1749553E-3,-3.946891E-2,2.4440875E-2,-4.307077E-3,-3.5680234E-8,8.3795995E-2,-5.4867215E-2,-1.3143746E-2,8.229525E-3,-6.0376227E-2,1.713728E-32,2.1298423E-2,-6.580379E-3,-2.672564E-3,-6.2231254E-2,2.3559225E-3,-1.2984559E-1,-3.0793473E-2,-7.066108E-2,1.9130418E-2,-6.324067E-2,8.500304E-3,-5.2036002E-2,2.618495E-2,-3.303182E-2,9.244232E-33,7.221328E-2,-1.364399E-2,-9.083461E-2,1.383131E-32,9.5983386E-2,4.069321E-4,-4.3107577E-2,1.5183581E-32,-4.157233E-2,2.2321759E-2,2.3559725E-2,1.1508039E-1,-2.050941E-2,-1.0954783E-1,-4.15352E-2,7.0210337E-3,2.97893E-1,7.1023166E-2,-1.4701854E-2,-8.880507E-3,8.609528E-3,-8.556874E-33,-5.5231646E-2,1.1666073E-2,2.0671505E-2,-7.093535E-2,-3.319802E-2,-2.7895654E-8,4.175168E-1,-1.7855668E-1,-4.891158E-1,1.5821207E-2,-1.0873625E-1,4.2463058E-1,-3.8005373E-1,3.7024006E-1,4.260564E-1,-8.262023E-2,-3.8742715E-1,2.2799392E-1,4.2167854E-1,-2.5986162E-1,-5.0369453E-1,1.3327631E-1,-4.373465E-1,3.772349E-1,3.9364767E-1,-2.9044226E-1,6.008087E-2,4.1701147E-1,-4.2978513E-1,2.5098008E-1,-3.9063892E-1,2.4711801E-1,-4.6258944E-1,1.4833685E-2,-4.4595402E-1,-5.2230466E-2,-4.7926652E-1,1.3373771E-1,3.636942E-1,-1.0436948E-1,1.6631733E-1,-4.675682E-1,3.5962823E-1,-4.8229727E-1,-1.23705596E-1,3.620106E-1,-4.8832336E-1,-8.136794E-2,2.5158754E-1,-4.2472228E-1,-1.4978594E-1,4.3852082E-1,4.3710178E-1,-3.3344358E-1,4.5601642E-1,-3.2471907E-1,-1.9055435E-1,4.0562323E-1,2.0990436E-1,-4.0049535E-1,-3.132507E-1,2.3348765E-1,-1.9975574E-1,4.115927E-1,-2.6921248E-1,4.0460002E-1,-5.2575076E-1,2.1369451E-1],"split_indices":[319,96,228,276,223,304,133,61,373,240,161,200,76,319,276,8,98,358,378,127,269,94,264,264,212,215,47,18,221,350,355,161,234,220,127,88,321,96,127,7,325,17,127,79,79,240,70,24,207,34,285,0,273,10,211,262,223,79,196,212,220,211,319,0,0,0,0,0,0,0,0,0,0,0,0,0,0,0,0,0,0,0,0,0,0,0,0,0,0,0,0,0,0,0,0,0,0,0,0,0,0,0,0,0,0,0,0,0,0,0,0,0,0,0,0,0,0,0,0,0,0,0,0,0,0],"split_type":[0,0,0,0,0,0,0,0,0,0,0,0,0,0,0,0,0,0,0,0,0,0,0,0,0,0,0,0,0,0,0,0,0,0,0,0,0,0,0,0,0,0,0,0,0,0,0,0,0,0,0,0,0,0,0,0,0,0,0,0,0,0,0,0,0,0,0,0,0,0,0,0,0,0,0,0,0,0,0,0,0,0,0,0,0,0,0,0,0,0,0,0,0,0,0,0,0,0,0,0,0,0,0,0,0,0,0,0,0,0,0,0,0,0,0,0,0,0,0,0,0,0,0,0,0],"sum_hessian":[9.01609E3,5.9543853E3,3.0617046E3,1.4366299E3,4.5177554E3,2.7347058E2,2.788234E3,1.2651627E3,1.7146716E2,8.5343097E2,3.6643245E3,2.0953911E2,6.393148E1,3.5124847E2,2.4369856E3,8.326265E1,1.1819001E3,3.234921E1,1.3911795E2,2.4660777E2,6.068232E2,7.224312E2,2.9418933E3,1.4291615E2,6.662295E1,1.2422847E1,5.1508636E1,1.7013304E2,1.8111543E2,2.3982563E3,3.872927E1,2.1123764E1,6.213889E1,1.1256403E3,5.625982E1,2.670888E1,5.6403294E0,7.8599753E0,1.3125798E2,1.8577715E2,6.083063E1,5.4553143E2,6.1291756E1,3.1328473E2,4.0914645E2,4.6893402E2,2.4729592E3,2.871728E0,1.4004443E2,2.6028421E1,4.0594524E1,1.8071805E0,1.0615666E1,4.7054505E0,4.6803185E1,4.60667E1,1.24066345E2,1.4469121E2,3.6424236E1,3.3024734E1,2.3652314E3,1.601373E1,2.2715542E1,1.2979931E1,8.143833E0,5.141073E1,1.072816E1,1.9320023E1,1.1063203E3,3.3314785E1,2.2945038E1,2.5546154E1,1.1627256E0,3.843153E0,1.7971764E0,4.1243596E0,3.7356157E0,1.2868863E2,2.569356E0,1.7361604E2,1.2161096E1,4.9801193E1,1.1029436E1,8.042073E1,4.651107E2,4.646225E1,1.4829506E1,6.166597E1,2.5161877E2,3.3056226E2,7.858419E1,2.764455E2,1.9248853E2,2.4647485E3,8.21069E0,1.6905113E0,1.1812166E0,2.3635523E0,1.3768088E2,2.1060362E0,2.3922386E1,1.3928297E1,2.666623E1,9.445818E0,1.1698483E0,1.1317213E0,3.5737295E0,2.9042308E0,4.3898952E1,4.3488434E1,2.57827E0,9.615941E0,1.144504E2,4.91191E0,1.397793E2,2.560661E1,1.0817628E1,1.640268E1,1.6622055E1,1.2016661E1,2.3532148E3,1.9209253E0,1.4092804E1,2.07041E1,2.011441E0],"tree_param":{"num_deleted":"0","num_feature":"387","num_nodes":"125","size_leaf_vector":"1"}},{"base_weights":[1.648654E-2,-7.028466E-1,5.493559E-1,1.5518294E-2,-1.1746225E0,-6.36177E-1,7.864595E-1,-8.3888644E-1,5.5053705E-1,-1.2531378E0,6.6124356E-1,-9.647163E-1,7.678836E-1,-5.532519E-1,9.3817985E-1,-1.2700453E0,-4.398647E-2,9.001369E-1,-6.423771E-1,-1.3398492E0,-2.0350613E-1,1.0122313E0,-1.0523303E0,-3.1328648E-1,-1.2329828E0,9.8117644E-1,-1.0861417E0,9.2916846E-1,-8.9771914E-1,5.961738E-2,1.0686774E0,6.9903624E-1,-1.3541955E0,-7.6825666E-1,6.492885E-1,-1.1220792E-3,1.1501807E0,-9.6278757E-1,7.8947103E-1,-1.3670249E0,2.941175E-2,-6.7127734E-1,1.0084466E0,-8.878768E-1,1.2371581E0,-1.4948618E0,6.7447287E-1,5.1967996E-1,-9.7792184E-1,-2.3717694E-2,-1.2846004E0,-9.9360555E-2,1.2116948E0,2.664536E-1,-4.2160708E-1,-6.308066E-1,1.2830105E0,-1.2477285E0,4.3219787E-1,-5.117647E-1,8.78011E-1,-1.2836532E-2,1.1419712E0,3.530502E-1,-2.4357395E-1,-4.1924068E-1,2.4073978E-1,-3.1176293E-1,2.0083766E-1,3.352244E-1,-4.9091805E-2,-1.7781398E-1,2.7007377E-1,3.635451E-1,-3.0256504E-1,-3.4181437E-1,3.1087193E-1,3.2986948E-1,-1.9989175E-1,-4.1613254E-1,-1.3147883E-1,-2.6692888E-1,2.790199E-1,-2.9414555E-1,3.0678648E-1,3.6213985E-1,-1.9966656E-1,2.4983422E-1,-4.0109587E-1,3.9232382E-1,-2.2380893E-1,1.2456886E-1,-5.4213166E-1,2.4781707E-3,2.78455E-1,-2.689245E-1,2.87054E-1,-3.3436376E-1,2.3188536E-1,5.659559E-1,-2.912194E-1,-3.987709E-1,-7.12203E-3,3.0757853E-1,-3.0759546E-1,-2.4958347E-1,3.7835184E-1,-3.3667916E-1,2.4748854E-1,-7.492424E-4,4.6292946E-1,2.740902E-1,-3.9334986E-1,2.9414067E-1,-2.5621876E-1,-3.063406E-1,2.4591595E-1,-1.4404655E-1,3.2508403E-1,-3.7411842E-1,1.8500093E-1,-7.4745E-2,3.5292286E-1],"categories":[],"categories_nodes":[],"categories_segments":[],"categories_sizes":[],"default_left":[0,0,0,0,0,0,0,0,0,0,0,0,0,0,0,0,0,0,0,0,0,0,0,0,0,0,0,0,0,0,0,0,0,0,0,0,0,0,0,0,0,0,0,0,0,0,0,0,0,0,0,0,0,0,0,0,0,0,0,0,0,0,0,0,0,0,0,0,0,0,0,0,0,0,0,0,0,0,0,0,0,0,0,0,0,0,0,0,0,0,0,0,0,0,0,0,0,0,0,0,0,0,0,0,0,0,0,0,0,0,0,0,0,0,0,0,0,0,0,0,0,0,0],"id":2,"left_children":[1,3,5,7,9,11,13,15,17,19,21,23,25,27,29,31,33,35,37,39,41,43,45,47,49,51,53,55,57,59,61,63,65,67,69,71,73,75,77,79,81,83,85,87,89,91,93,95,97,99,101,103,105,-1,-1,107,109,111,113,115,117,119,121,-1,-1,-1,-1,-1,-1,-1,-1,-1,-1,-1,-1,-1,-1,-1,-1,-1,-1,-1,-1,-1,-1,-1,-1,-1,-1,-1,-1,-1,-1,-1,-1,-1,-1,-1,-1,-1,-1,-1,-1,-1,-1,-1,-1,-1,-1,-1,-1,-1,-1,-1,-1,-1,-1,-1,-1,-1,-1,-1,-1],"loss_changes":[3.02117E3,1.1367361E3,1.2732113E3,6.0868677E2,2.9264966E2,3.4908896E2,7.6753516E2,1.7567639E2,3.420551E2,1.7646338E2,5.139811E1,1.06636536E2,5.7912582E1,1.9717923E2,3.8860522E2,5.602417E1,9.1557556E1,1.4279614E2,8.6166466E1,6.677612E1,8.5348854E1,3.1002274E1,1.2254885E1,1.00145584E2,2.7024353E1,3.2363342E1,1.0894596E1,4.1099354E1,1.4600871E2,2.0595648E2,2.3397949E2,1.1266468E1,3.0903137E1,3.5424385E1,3.565006E1,7.444958E1,6.7221924E1,5.50403E1,1.6347477E1,3.2194824E1,3.0532148E1,5.775956E1,1.4770069E1,7.286374E0,9.792313E0,7.9229393E0,6.1626875E-1,5.0708733E1,2.4889992E1,3.5773388E1,2.3362305E1,2.571493E1,1.1844498E1,0E0,0E0,1.106057E1,2.0006226E1,3.5154816E1,4.7278984E1,1.7678513E2,5.1077774E1,1.4708447E2,1.3272192E2,0E0,0E0,0E0,0E0,0E0,0E0,0E0,0E0,0E0,0E0,0E0,0E0,0E0,0E0,0E0,0E0,0E0,0E0,0E0,0E0,0E0,0E0,0E0,0E0,0E0,0E0,0E0,0E0,0E0,0E0,0E0,0E0,0E0,0E0,0E0,0E0,0E0,0E0,0E0,0E0,0E0,0E0,0E0,0E0,0E0,0E0,0E0,0E0,0E0,0E0,0E0,0E0,0E0,0E0,0E0,0E0,0E0,0E0,0E0,0E0],"parents":[2147483647,0,0,1,1,2,2,3,3,4,4,5,5,6,6,7,7,8,8,9,9,10,10,11,11,12,12,13,13,14,14,15,15,16,16,17,17,18,18,19,19,20,20,21,21,22,22,23,23,24,24,25,25,26,26,27,27,28,28,29,29,30,30,31,31,32,32,33,33,34,34,35,35,36,36,37,37,38,38,39,39,40,40,41,41,42,42,43,43,44,44,45,45,46,46,47,47,48,48,49,49,50,50,51,51,52,52,55,55,56,56,57,57,58,58,59,59,60,60,61,61,62,62],"right_children":[2,4,6,8,10,12,14,16,18,20,22,24,26,28,30,32,34,36,38,40,42,44,46,48,50,52,54,56,58,60,62,64,66,68,70,72,74,76,78,80,82,84,86,88,90,92,94,96,98,100,102,104,106,-1,-1,108,110,112,114,116,118,120,122,-1,-1,-1,-1,-1,-1,-1,-1,-1,-1,-1,-1,-1,-1,-1,-1,-1,-1,-1,-1,-1,-1,-1,-1,-1,-1,-1,-1,-1,-1,-1,-1,-1,-1,-1,-1,-1,-1,-1,-1,-1,-1,-1,-1,-1,-1,-1,-1,-1,-1,-1,-1,-1,-1,-1,-1,-1,-1,-1,-1],"split_conditions":[-2.3040071E-2,-1.7657466E-2,-2.3363546E-2,4.4896975E-3,1.383131E-32,6.758467E-2,-2.8293513E-2,3.98838E-3,1.937625E-2,8.598767E-2,7.375648E-3,-1.8846886E-2,4.0414616E-2,-2.8774947E-2,-2.196909E-2,-7.750511E-2,2.5256995E-2,7.0292186E-3,-4.063103E-8,-3.430464E-8,5.0035525E-2,-3.713754E-2,5.2099604E-2,-2.3993138E-2,-9.054744E-2,1.1506996E-2,-5.9189364E-2,-1.35605745E-2,-4.2589527E-8,-4.2589527E-8,-5.496728E-2,-1.3542962E-2,1.285875E-1,5.8699425E-2,5.466425E-3,-4.4842924E-8,5.646402E-2,1.2064307E-32,3.9714277E-3,8.350163E-2,8.508473E-3,-4.063103E-8,6.625008E-2,-4.8636407E-2,7.894893E-2,-4.75568E-2,3.4175057E-2,-2.0057686E-2,1.0223997E-1,-1.8629726E-2,-2.9741802E-8,-3.7538048E-2,-3.2958556E-2,2.664536E-1,-4.2160708E-1,-3.945712E-8,-1.0409855E-3,-1.0048706E-1,-4.3703243E-3,8.432473E-33,-2.083775E-2,-9.502206E-4,-5.3310633E-2,3.530502E-1,-2.4357395E-1,-4.1924068E-1,2.4073978E-1,-3.1176293E-1,2.0083766E-1,3.352244E-1,-4.9091805E-2,-1.7781398E-1,2.7007377E-1,3.635451E-1,-3.0256504E-1,-3.4181437E-1,3.1087193E-1,3.2986948E-1,-1.9989175E-1,-4.1613254E-1,-1.3147883E-1,-2.6692888E-1,2.790199E-1,-2.9414555E-1,3.0678648E-1,3.6213985E-1,-1.9966656E-1,2.4983422E-1,-4.0109587E-1,3.9232382E-1,-2.2380893E-1,1.2456886E-1,-5.4213166E-1,2.4781707E-3,2.78455E-1,-2.689245E-1,2.87054E-1,-3.3436376E-1,2.3188536E-1,5.659559E-1,-2.912194E-1,-3.987709E-1,-7.12203E-3,3.0757853E-1,-3.0759546E-1,-2.4958347E-1,3.7835184E-1,-3.3667916E-1,2.4748854E-1,-7.492424E-4,4.6292946E-1,2.740902E-1,-3.9334986E-1,2.9414067E-1,-2.5621876E-1,-3.063406E-1,2.4591595E-1,-1.4404655E-1,3.2508403E-1,-3.7411842E-1,1.8500093E-1,-7.4745E-2,3.5292286E-1],"split_indices":[366,161,228,240,127,304,318,48,358,200,269,195,89,221,133,96,313,337,319,319,304,240,359,161,325,115,161,240,319,319,17,33,212,304,373,319,77,127,77,285,228,319,4,77,174,258,345,285,2,315,319,77,48,0,0,319,199,325,286,127,350,233,240,0,0,0,0,0,0,0,0,0,0,0,0,0,0,0,0,0,0,0,0,0,0,0,0,0,0,0,0,0,0,0,0,0,0,0,0,0,0,0,0,0,0,0,0,0,0,0,0,0,0,0,0,0,0,0,0,0,0,0,0],"split_type":[0,0,0,0,0,0,0,0,0,0,0,0,0,0,0,0,0,0,0,0,0,0,0,0,0,0,0,0,0,0,0,0,0,0,0,0,0,0,0,0,0,0,0,0,0,0,0,0,0,0,0,0,0,0,0,0,0,0,0,0,0,0,0,0,0,0,0,0,0,0,0,0,0,0,0,0,0,0,0,0,0,0,0,0,0,0,0,0,0,0,0,0,0,0,0,0,0,0,0,0,0,0,0,0,0,0,0,0,0,0,0,0,0,0,0,0,0,0,0,0,0,0,0],"sum_hessian":[7.879773E3,3.3530679E3,4.526705E3,1.3295511E3,2.0235166E3,7.541623E2,3.7725427E3,5.117453E2,8.1780585E2,1.9408297E3,8.268686E1,6.1141E2,1.427523E2,3.835039E2,3.3890388E3,3.3139615E2,1.8034914E2,6.326458E2,1.8516008E2,1.7924746E3,1.4835515E2,6.896931E1,1.3717555E1,1.7897462E2,4.3243533E2,1.2844624E2,1.43060665E1,7.1991196E1,3.1151273E2,4.38479E2,2.9505598E3,1.32825575E1,3.1811362E2,8.814997E1,9.219917E1,1.3761638E2,4.950294E2,1.5157019E2,3.358989E1,1.7575934E3,3.4881252E1,1.07362946E2,4.099221E1,6.9881597E0,6.1981144E1,1.1026172E1,2.6913834E0,7.9525696E1,9.944894E1,1.7762684E1,4.1467267E2,2.2684303E1,1.0576194E2,1.7430514E0,1.2563015E1,1.3165598E1,5.88256E1,2.4665858E2,6.485413E1,2.5842664E2,1.8005237E2,1.8731975E2,2.7632402E3,1.0259418E1,3.02314E0,3.122013E2,5.9123096E0,7.440476E1,1.3745204E1,5.826982E1,3.392935E1,8.329207E1,5.4324314E1,4.817141E2,1.3315288E1,1.3966248E2,1.1907716E1,2.7893093E1,5.696799E0,1.7199086E3,3.7684704E1,1.726912E1,1.7612131E1,9.114611E1,1.6216831E1,3.6892372E1,4.0998397E0,1.2696187E0,5.7185407E0,6.0179737E1,1.8014084E0,1.5028634E0,9.523309E0,1.0270461E0,1.6643374E0,1.8511543E1,6.1014153E1,9.2587585E1,6.861349E0,5.5584893E0,1.2204194E1,4.0044232E2,1.4230344E1,1.0194872E1,1.2489431E1,2.1262186E0,1.0363572E2,1.0014026E1,3.1515725E0,1.0065636E1,4.8759964E1,6.651045E0,2.4000754E2,4.563841E1,1.9215723E1,1.8708772E2,7.1338905E1,2.3497492E1,1.5655487E2,6.2939014E1,1.2438074E2,6.6602936E1,2.6966372E3],"tree_param":{"num_deleted":"0","num_feature":"387","num_nodes":"123","size_leaf_vector":"1"}},{"base_weights":[1.5382841E-2,-6.5861535E-1,4.813536E-1,-9.9079067E-1,6.7644477E-1,6.621919E-1,-7.9272056E-1,-1.1340781E0,5.6873646E-2,-2.6787037E-1,1.0344532E0,8.2977104E-1,-5.107254E-1,-9.782714E-1,8.8181627E-1,-1.1795033E0,3.587216E-1,9.218452E-1,-5.032266E-1,-1.085293E0,3.88194E-1,-4.3219876E-1,1.0969027E0,9.888101E-1,4.1583117E-2,3.5866776E-1,-9.412287E-1,-1.2048236E0,-1.1242206E-1,-1.2357105E0,1.109609E0,-1.244841E0,-5.2156067E-1,-9.875265E-1,1.0915267E0,-8.6326426E-1,1.1393706E0,5.786159E-1,-8.860487E-1,-1.2549757E0,5.057957E-1,-7.5569236E-1,9.625668E-1,4.8640612E-1,-1.5436203E0,1.1395435E0,-1.7287402E-1,1.0554458E0,-7.497207E-2,-4.8387775E-1,1.0252229E0,-3.849806E-1,8.39327E-1,2.9446474E-1,-1.1448276E0,6.815995E-2,-1.2674471E0,4.8245317E-1,-7.5649077E-1,-4.3433508E-1,-4.7405526E-2,-2.8275597E-1,1.2268901E0,-3.8401386E-1,-1.5367375E-1,1.4387977E-1,-2.8870812E-1,-5.2107143E-1,7.4107096E-2,-4.1732392E-1,3.7211663E-1,-4.169776E-1,2.590995E-1,3.8031372E-1,-8.1193164E-2,-1.5965952E-1,3.671322E-1,3.7051746E-1,-2.9194435E-1,-4.0428248E-1,1.501788E-1,2.855488E-1,-3.034451E-1,1.4696985E-1,-3.4114343E-1,3.7619674E-1,-7.879286E-2,2.9924446E-1,-1.3080451E-1,-5.816744E-1,1.4160559E-1,-1.9554697E-1,3.4771615E-1,1.736487E-1,-4.6442866E-1,7.565124E-2,3.324217E-1,-2.0940457E-1,2.3339239E-1,-2.8232616E-1,2.5295338E-1,3.2744688E-1,-4.028695E-1,1.7433436E-1,-2.8690934E-1,2.8951368E-1,-3.9698294E-1,-2.2352979E-1,3.8279516E-1,1.22033566E-1,-3.6075315E-1,-2.8160402E-1,3.7802297E-1,-3.8467732E-1,8.2443096E-2,2.367041E-1,-2.0729761E-1,-3.719656E-1,6.818842E-2,3.8750648E-1,-5.119906E-2],"categories":[],"categories_nodes":[],"categories_segments":[],"categories_sizes":[],"default_left":[0,0,0,0,0,0,0,0,0,0,0,0,0,0,0,0,0,0,0,0,0,0,0,0,0,0,0,0,0,0,0,0,0,0,0,0,0,0,0,0,0,0,0,0,0,0,0,0,0,0,0,0,0,0,0,0,0,0,0,0,0,0,0,0,0,0,0,0,0,0,0,0,0,0,0,0,0,0,0,0,0,0,0,0,0,0,0,0,0,0,0,0,0,0,0,0,0,0,0,0,0,0,0,0,0,0,0,0,0,0,0,0,0,0,0,0,0,0,0,0,0],"id":3,"left_children":[1,3,5,7,9,11,13,15,17,19,21,23,25,27,29,31,33,35,37,39,41,43,45,47,49,51,53,55,57,59,61,63,65,67,69,71,73,75,77,79,81,83,85,87,89,91,93,95,97,99,101,103,105,107,109,111,113,115,117,-1,-1,-1,119,-1,-1,-1,-1,-1,-1,-1,-1,-1,-1,-1,-1,-1,-1,-1,-1,-1,-1,-1,-1,-1,-1,-1,-1,-1,-1,-1,-1,-1,-1,-1,-1,-1,-1,-1,-1,-1,-1,-1,-1,-1,-1,-1,-1,-1,-1,-1,-1,-1,-1,-1,-1,-1,-1,-1,-1,-1,-1],"loss_changes":[2.1299724E3,1.2300663E3,9.243834E2,3.3336646E2,1.8720378E2,6.9071533E2,1.5586136E2,1.3287036E2,1.3034143E2,8.23606E1,3.721408E1,3.8520166E2,1.6488998E2,8.805069E1,2.5628017E1,8.0846436E1,5.8737446E1,4.203453E1,6.817015E1,1.9072594E1,5.690119E1,1.820885E1,2.1043976E1,1.8135059E2,2.6773828E2,5.262755E1,7.438495E1,2.8484192E1,3.6509373E1,9.9566174E-1,1.2210781E1,4.3802246E1,7.6796906E1,1.9973333E1,1.5887505E1,1.2161777E1,1.7474197E1,3.16848E1,2.3567268E1,1.0757103E1,5.899067E0,1.440258E1,2.080923E1,5.2068443E0,7.271326E0,1.3779663E1,1.4725617E1,1.0145386E2,8.1147484E1,2.0568567E2,2.9768082E1,3.2646515E1,2.5527512E1,4.4244114E1,2.3123474E1,2.236586E1,8.108765E0,1.8406635E1,2.2007677E1,0E0,0E0,0E0,4.194351E0,0E0,0E0,0E0,0E0,0E0,0E0,0E0,0E0,0E0,0E0,0E0,0E0,0E0,0E0,0E0,0E0,0E0,0E0,0E0,0E0,0E0,0E0,0E0,0E0,0E0,0E0,0E0,0E0,0E0,0E0,0E0,0E0,0E0,0E0,0E0,0E0,0E0,0E0,0E0,0E0,0E0,0E0,0E0,0E0,0E0,0E0,0E0,0E0,0E0,0E0,0E0,0E0,0E0,0E0,0E0,0E0,0E0,0E0],"parents":[2147483647,0,0,1,1,2,2,3,3,4,4,5,5,6,6,7,7,8,8,9,9,10,10,11,11,12,12,13,13,14,14,15,15,16,16,17,17,18,18,19,19,20,20,21,21,22,22,23,23,24,24,25,25,26,26,27,27,28,28,29,29,30,30,31,31,32,32,33,33,34,34,35,35,36,36,37,37,38,38,39,39,40,40,41,41,42,42,43,43,44,44,45,45,46,46,47,47,48,48,49,49,50,50,51,51,52,52,53,53,54,54,55,55,56,56,57,57,58,58,62,62],"right_children":[2,4,6,8,10,12,14,16,18,20,22,24,26,28,30,32,34,36,38,40,42,44,46,48,50,52,54,56,58,60,62,64,66,68,70,72,74,76,78,80,82,84,86,88,90,92,94,96,98,100,102,104,106,108,110,112,114,116,118,-1,-1,-1,120,-1,-1,-1,-1,-1,-1,-1,-1,-1,-1,-1,-1,-1,-1,-1,-1,-1,-1,-1,-1,-1,-1,-1,-1,-1,-1,-1,-1,-1,-1,-1,-1,-1,-1,-1,-1,-1,-1,-1,-1,-1,-1,-1,-1,-1,-1,-1,-1,-1,-1,-1,-1,-1,-1,-1,-1,-1,-1],"split_conditions":[8.426637E-3,-4.083E-8,5.2876644E-2,3.628269E-2,3.988038E-3,4.507765E-2,1.0557961E-32,1.5183581E-32,-8.661977E-33,-8.06309E-3,-5.8066286E-2,-8.845746E-3,-1.8209541E-2,-4.584908E-8,-5.859386E-2,5.1312353E-2,-7.235891E-8,-3.3998217E-2,-5.3242568E-2,8.375246E-2,-2.2975097E-3,-2.9528573E-2,3.1578567E-2,2.9530521E-2,-3.923217E-8,-4.584908E-8,-2.4726262E-2,-4.485648E-2,6.983355E-3,1.7584104E-2,-3.302887E-2,6.2658355E-2,-1.6638827E-2,2.0962623E-32,-3.9505243E-2,1.1576086E-2,3.28521E-2,2.5871411E-2,-7.757178E-2,7.222558E-2,5.481391E-2,-3.994759E-2,1.8029009E-3,7.0240926E-3,2.8400848E-2,-6.2003426E-2,1.3969294E-2,-4.8498966E-2,4.4137258E-2,9.244232E-33,6.257788E-2,-1.8532686E-2,5.2056342E-2,3.5306048E-2,-6.137651E-2,4.178597E-3,1.07032456E-1,1.2380968E-2,3.232472E-2,-4.3433508E-1,-4.7405526E-2,-2.8275597E-1,8.628373E-2,-3.8401386E-1,-1.5367375E-1,1.4387977E-1,-2.8870812E-1,-5.2107143E-1,7.4107096E-2,-4.1732392E-1,3.7211663E-1,-4.169776E-1,2.590995E-1,3.8031372E-1,-8.1193164E-2,-1.5965952E-1,3.671322E-1,3.7051746E-1,-2.9194435E-1,-4.0428248E-1,1.501788E-1,2.855488E-1,-3.034451E-1,1.4696985E-1,-3.4114343E-1,3.7619674E-1,-7.879286E-2,2.9924446E-1,-1.3080451E-1,-5.816744E-1,1.4160559E-1,-1.9554697E-1,3.4771615E-1,1.736487E-1,-4.6442866E-1,7.565124E-2,3.324217E-1,-2.0940457E-1,2.3339239E-1,-2.8232616E-1,2.5295338E-1,3.2744688E-1,-4.028695E-1,1.7433436E-1,-2.8690934E-1,2.8951368E-1,-3.9698294E-1,-2.2352979E-1,3.8279516E-1,1.22033566E-1,-3.6075315E-1,-2.8160402E-1,3.7802297E-1,-3.8467732E-1,8.2443096E-2,2.367041E-1,-2.0729761E-1,-3.719656E-1,6.818842E-2,3.8750648E-1,-5.119906E-2],"split_indices":[173,319,92,48,228,276,127,127,223,79,79,98,161,319,17,345,319,183,161,200,47,125,162,314,319,319,383,264,276,76,6,133,84,127,273,216,184,172,374,352,250,338,178,186,100,306,205,183,240,127,316,358,326,277,215,103,228,18,212,0,0,0,230,0,0,0,0,0,0,0,0,0,0,0,0,0,0,0,0,0,0,0,0,0,0,0,0,0,0,0,0,0,0,0,0,0,0,0,0,0,0,0,0,0,0,0,0,0,0,0,0,0,0,0,0,0,0,0,0,0,0],"split_type":[0,0,0,0,0,0,0,0,0,0,0,0,0,0,0,0,0,0,0,0,0,0,0,0,0,0,0,0,0,0,0,0,0,0,0,0,0,0,0,0,0,0,0,0,0,0,0,0,0,0,0,0,0,0,0,0,0,0,0,0,0,0,0,0,0,0,0,0,0,0,0,0,0,0,0,0,0,0,0,0,0,0,0,0,0,0,0,0,0,0,0,0,0,0,0,0,0,0,0,0,0,0,0,0,0,0,0,0,0,0,0,0,0,0,0,0,0,0,0,0,0],"sum_hessian":[6.779971E3,2.7711946E3,4.0087766E3,2.2192761E3,5.519185E2,3.5109263E3,4.9785028E2,1.9521947E3,2.670813E2,1.5179147E2,4.0012704E2,3.072272E3,4.386544E2,4.485621E2,4.9288162E1,1.8947484E3,5.744636E1,1.0471791E2,1.6236337E2,6.729326E1,8.449821E1,1.6099663E1,3.8402737E2,2.5562268E3,5.160452E2,1.4533005E2,2.9332434E2,3.552249E2,9.33372E1,4.3574305E0,4.493073E1,1.7227743E3,1.7197406E2,2.0125635E1,3.7320724E1,1.105197E1,9.366595E1,4.230354E1,1.2005984E2,6.0999207E1,6.294054E0,2.8140196E1,5.635801E1,9.122309E0,6.9773545E0,3.7164948E2,1.2377921E1,2.40555E3,1.5067674E2,3.3669217E2,1.7935306E2,5.7134262E1,8.8195786E1,4.1429848E1,2.518945E2,1.6651522E1,3.385734E2,4.8652065E1,4.4685127E1,3.354003E0,1.0034274E0,2.0486143E0,4.2882114E1,1.6430687E3,7.9705536E1,5.2544693E1,1.1942937E2,1.2270479E1,7.8551555E0,1.639168E0,3.5681557E1,8.618679E0,2.4332898E0,8.59441E1,7.7218475E0,1.560698E1,2.6696558E1,4.215705E0,1.1584413E2,5.8162643E1,2.8365622E0,5.1521525E0,1.1419014E0,6.530674E0,2.1609522E1,4.5509785E1,1.0848224E1,5.8176284E0,3.3046806E0,5.8651776E0,1.112177E0,3.6549532E0,3.679945E2,8.377719E0,4.000202E0,1.482652E2,2.2572847E3,8.7178215E1,6.3498524E1,2.5063272E2,8.605945E1,1.749953E2,4.3577676E0,2.1226868E1,3.5907394E1,8.387372E1,4.32207E0,2.0236975E1,2.1192873E1,8.811904E0,2.430826E2,9.141741E0,7.509782E0,3.3551993E2,3.0534582E0,3.8834286E1,9.81778E0,2.9788086E1,1.4897042E1,4.1054363E1,1.8277544E0],"tree_param":{"num_deleted":"0","num_feature":"387","num_nodes":"121","size_leaf_vector":"1"}},{"base_weights":[1.37267485E-2,-3.5523155E-1,6.640845E-1,-6.735216E-1,5.236693E-1,-3.5190395E-1,8.270475E-1,-8.4454507E-1,7.082964E-1,-6.549262E-1,8.1987554E-1,-8.2288986E-1,1.9542706E-1,2.5847974E-1,9.9665856E-1,-1.0596955E0,1.4646599E-1,8.115488E-1,-1.5517294E0,7.7059966E-1,-1.06817E0,9.474081E-1,-7.119553E-1,6.9945633E-1,-1.1567061E0,-7.329558E-1,7.212635E-1,-2.5690746E-1,7.7242815E-1,3.4964713E-1,1.0759399E0,-1.1221819E0,-2.5686586E-1,-8.1712085E-1,7.3003113E-1,-5.287341E-1,9.8776823E-1,-1.3881429E-1,-5.0565094E-1,-7.637731E-1,1.2223983E0,5.4495838E-2,-1.1835508E0,-2.7165487E-1,1.0502361E0,-1.0538372E0,3.2521257E-1,9.864314E-1,-2.6882088E-1,-5.9994566E-1,-1.2497312E0,-9.272363E-1,7.2420084E-1,9.4186246E-1,-6.9712913E-1,4.223826E-1,-8.3567154E-1,-1.0129751E0,8.499435E-1,-3.3295733E-1,7.1120745E-1,-8.3494306E-1,1.090901E0,-3.455741E-1,-5.3370044E-2,3.1037772E-1,-2.6257083E-1,-3.0260804E-1,2.2072761E-1,-2.6747605E-1,2.9177344E-1,1.778727E-1,-3.5465953E-1,-2.4166566E-1,3.1142977E-1,-3.3873802E-1,1.2060342E-1,3.9633936E-1,-1.3181306E-1,3.3747283E-1,-2.3151115E-1,-2.4496378E-2,-3.6822966E-1,-2.9046017E-1,1.19991966E-1,3.3590606E-1,-1.5189648E-2,2.7709264E-1,-3.4871292E-1,-2.119846E-1,3.3832818E-1,-1.7929932E-1,3.46345E-1,9.7148575E-2,-3.3915734E-1,4.2423416E-2,-3.7934494E-1,-8.3591394E-2,-3.9090118E-1,3.7582886E-1,-2.1401392E-1,-2.375597E-1,3.3138466E-1,-3.33815E-1,2.1325491E-1,-2.6594725E-1,2.2703107E-1,-3.4505805E-1,1.09330796E-1,8.950624E-2,-4.1934967E-1,2.7415174E-1,-2.3501866E-1,-3.6836523E-1,3.6417827E-2,-3.4705997E-1,2.4733736E-1,1.9396879E-1,-4.4793117E-1,-1.1682122E-1,3.302648E-1],"categories":[],"categories_nodes":[],"categories_segments":[],"categories_sizes":[],"default_left":[0,0,0,0,0,0,0,0,0,0,0,0,0,0,0,0,0,0,0,0,0,0,0,0,0,0,0,0,0,0,0,0,0,0,0,0,0,0,0,0,0,0,0,0,0,0,0,0,0,0,0,0,0,0,0,0,0,0,0,0,0,0,0,0,0,0,0,0,0,0,0,0,0,0,0,0,0,0,0,0,0,0,0,0,0,0,0,0,0,0,0,0,0,0,0,0,0,0,0,0,0,0,0,0,0,0,0,0,0,0,0,0,0,0,0,0,0,0,0,0,0],"id":4,"left_children":[1,3,5,7,9,11,13,15,17,19,21,23,25,27,29,31,33,35,37,39,41,43,45,47,49,51,53,55,57,59,61,63,65,67,69,71,73,-1,-1,75,77,79,81,83,85,87,89,91,-1,93,95,97,99,101,103,105,107,109,111,113,115,117,119,-1,-1,-1,-1,-1,-1,-1,-1,-1,-1,-1,-1,-1,-1,-1,-1,-1,-1,-1,-1,-1,-1,-1,-1,-1,-1,-1,-1,-1,-1,-1,-1,-1,-1,-1,-1,-1,-1,-1,-1,-1,-1,-1,-1,-1,-1,-1,-1,-1,-1,-1,-1,-1,-1,-1,-1,-1,-1],"loss_changes":[1.3841482E3,1.0299377E3,3.4598975E2,6.392333E2,3.4233344E2,7.47413E1,1.732909E2,5.129844E2,7.083882E1,1.169885E2,1.5361353E2,7.992992E1,6.6246735E1,1.1008545E2,7.0708984E1,9.885449E1,2.4234148E2,6.802402E1,1.1679497E0,3.205838E1,1.992163E1,9.093176E1,2.1880081E1,1.3989878E1,5.8833313E0,1.4592363E1,2.7705132E1,8.208326E1,2.9642624E1,3.793644E1,3.619055E1,5.1264893E1,1.1591162E2,4.9122246E1,1.063873E2,2.5520119E1,2.3666504E1,0E0,0E0,5.0660644E0,6.3344307E0,1.4348257E1,6.623398E0,2.7074192E1,5.105902E1,1.092897E1,1.3898994E1,7.2749557E0,0E0,1.0295327E1,2.4118347E0,1.0318558E1,5.7160063E0,2.2104012E1,7.935381E0,4.2819374E1,4.2915382E1,5.014436E0,2.1573471E1,2.1932873E1,2.2147438E1,1.0865419E1,1.8527466E1,0E0,0E0,0E0,0E0,0E0,0E0,0E0,0E0,0E0,0E0,0E0,0E0,0E0,0E0,0E0,0E0,0E0,0E0,0E0,0E0,0E0,0E0,0E0,0E0,0E0,0E0,0E0,0E0,0E0,0E0,0E0,0E0,0E0,0E0,0E0,0E0,0E0,0E0,0E0,0E0,0E0,0E0,0E0,0E0,0E0,0E0,0E0,0E0,0E0,0E0,0E0,0E0,0E0,0E0,0E0,0E0,0E0,0E0],"parents":[2147483647,0,0,1,1,2,2,3,3,4,4,5,5,6,6,7,7,8,8,9,9,10,10,11,11,12,12,13,13,14,14,15,15,16,16,17,17,18,18,19,19,20,20,21,21,22,22,23,23,24,24,25,25,26,26,27,27,28,28,29,29,30,30,31,31,32,32,33,33,34,34,35,35,36,36,39,39,40,40,41,41,42,42,43,43,44,44,45,45,46,46,47,47,49,49,50,50,51,51,52,52,53,53,54,54,55,55,56,56,57,57,58,58,59,59,60,60,61,61,62,62],"right_children":[2,4,6,8,10,12,14,16,18,20,22,24,26,28,30,32,34,36,38,40,42,44,46,48,50,52,54,56,58,60,62,64,66,68,70,72,74,-1,-1,76,78,80,82,84,86,88,90,92,-1,94,96,98,100,102,104,106,108,110,112,114,116,118,120,-1,-1,-1,-1,-1,-1,-1,-1,-1,-1,-1,-1,-1,-1,-1,-1,-1,-1,-1,-1,-1,-1,-1,-1,-1,-1,-1,-1,-1,-1,-1,-1,-1,-1,-1,-1,-1,-1,-1,-1,-1,-1,-1,-1,-1,-1,-1,-1,-1,-1,-1,-1,-1,-1,-1,-1,-1,-1],"split_conditions":[-4.569384E-8,3.694724E-2,-2.8488662E-2,1.241112E-32,-9.73941E-3,9.589272E-3,-1.7049066E-3,3.7551206E-2,1E0,-7.579632E-2,5.2876644E-2,-6.358642E-2,1.03995E-2,2.3656797E-2,-2.230842E-2,8.082345E-2,-3.2136387E-3,-5.2799687E-2,-2.3315007E-2,1.870401E-3,-5.696053E-2,-1.43062435E-2,3.4175057E-2,2.0035287E-2,-4.9228743E-2,6.2565304E-2,5.382997E-3,-3.3538625E-2,-6.284873E-2,7.4934424E-3,-6.465559E-2,9.501167E-2,7.336891E-4,3.6409996E-2,-1.9836135E-2,-2.6841868E-2,-6.43738E-2,-1.3881429E-1,-5.0565094E-1,2.0177111E-2,2.405711E-2,-2.1607818E-2,-4.0849537E-2,5.1189726E-3,5.0302256E-2,-1.3247522E-32,-5.316432E-3,-1.1693686E-2,-2.6882088E-1,-7.888408E-3,-7.554347E-2,-9.9898325E-3,4.146659E-2,-5.6733113E-2,3.9955985E-2,-2.004936E-2,5.9089977E-2,-2.0206977E-2,1.4309424E-2,-1.85301E-2,-4.5807514E-2,-3.97714E-2,-9.7295485E-2,-3.455741E-1,-5.3370044E-2,3.1037772E-1,-2.6257083E-1,-3.0260804E-1,2.2072761E-1,-2.6747605E-1,2.9177344E-1,1.778727E-1,-3.5465953E-1,-2.4166566E-1,3.1142977E-1,-3.3873802E-1,1.2060342E-1,3.9633936E-1,-1.3181306E-1,3.3747283E-1,-2.3151115E-1,-2.4496378E-2,-3.6822966E-1,-2.9046017E-1,1.19991966E-1,3.3590606E-1,-1.5189648E-2,2.7709264E-1,-3.4871292E-1,-2.119846E-1,3.3832818E-1,-1.7929932E-1,3.46345E-1,9.7148575E-2,-3.3915734E-1,4.2423416E-2,-3.7934494E-1,-8.3591394E-2,-3.9090118E-1,3.7582886E-1,-2.1401392E-1,-2.375597E-1,3.3138466E-1,-3.33815E-1,2.1325491E-1,-2.6594725E-1,2.2703107E-1,-3.4505805E-1,1.09330796E-1,8.950624E-2,-4.1934967E-1,2.7415174E-1,-2.3501866E-1,-3.6836523E-1,3.6417827E-2,-3.4705997E-1,2.4733736E-1,1.9396879E-1,-4.4793117E-1,-1.1682122E-1,3.302648E-1],"split_indices":[319,133,228,127,240,200,16,233,386,98,92,18,212,212,350,7,48,203,4,283,195,345,345,218,125,208,165,18,285,206,318,212,264,332,212,325,273,0,0,68,192,33,317,337,330,223,229,219,0,178,280,195,34,17,273,333,272,96,256,108,200,286,47,0,0,0,0,0,0,0,0,0,0,0,0,0,0,0,0,0,0,0,0,0,0,0,0,0,0,0,0,0,0,0,0,0,0,0,0,0,0,0,0,0,0,0,0,0,0,0,0,0,0,0,0,0,0,0,0,0,0],"split_type":[0,0,0,0,0,0,0,0,0,0,0,0,0,0,0,0,0,0,0,0,0,0,0,0,0,0,0,0,0,0,0,0,0,0,0,0,0,0,0,0,0,0,0,0,0,0,0,0,0,0,0,0,0,0,0,0,0,0,0,0,0,0,0,0,0,0,0,0,0,0,0,0,0,0,0,0,0,0,0,0,0,0,0,0,0,0,0,0,0,0,0,0,0,0,0,0,0,0,0,0,0,0,0,0,0,0,0,0,0,0,0,0,0,0,0,0,0,0,0,0,0],"sum_hessian":[5.7663853E3,3.6794363E3,2.086949E3,2.701378E3,9.780585E2,2.8831256E2,1.7986364E3,2.4042053E3,2.9717252E2,1.9619472E2,7.818638E2,1.5469334E2,1.3361922E2,4.1385196E2,1.3847844E3,1.9752958E3,4.289097E2,2.8480185E2,1.2370656E1,4.3898315E1,1.522964E2,7.2212476E2,5.9738976E1,2.762339E1,1.2706995E2,4.817343E1,8.5445786E1,2.0688646E2,2.069655E2,1.5175214E2,1.2330322E3,1.832286E3,1.4300975E2,1.6162807E2,2.6728162E2,3.286187E1,2.5193999E2,1.8411635E0,1.0529492E1,9.828569E0,3.4069744E1,1.42425785E1,1.3805382E2,5.6045357E1,6.660794E2,4.4916927E1,1.4822046E1,2.373594E1,3.8874507E0,1.9258154E1,1.0781179E2,4.2827034E1,5.346396E0,7.4236015E1,1.1209772E1,9.53018E1,1.1158465E2,8.1096115E0,1.9885588E2,5.2574223E1,9.917791E1,9.153163E0,1.2238792E3,1.7761423E3,5.614367E1,4.608621E1,9.6923546E1,1.441903E2,1.7437756E1,3.4427914E1,2.328537E2,1.2131443E1,2.0730425E1,6.468234E0,2.4547176E2,7.50726E0,2.3213098E0,3.2352535E1,1.7172068E0,6.046833E0,8.195745E0,5.3967934E0,1.3265703E2,2.7295557E1,2.8749802E1,6.265359E2,3.9543503E1,1.9463637E0,4.2970562E1,6.5370116E0,8.285035E0,2.0313675E0,2.1704573E1,7.167942E0,1.2090211E1,1.0411646E0,1.0677063E2,1.6349056E1,2.6477978E1,4.003114E0,1.3432817E0,6.0390882E0,6.819693E1,8.816999E0,2.3927722E0,1.9057009E1,7.62448E1,8.844638E1,2.3138266E1,1.8910328E0,6.218579E0,1.9179352E2,7.062376E0,1.7130339E1,3.5443886E1,5.1421742E0,9.403573E1,2.8209307E0,6.332232E0,7.9426575E0,1.2159364E3],"tree_param":{"num_deleted":"0","num_feature":"387","num_nodes":"121","size_leaf_vector":"1"}},{"base_weights":[1.2364588E-2,4.458639E-1,-4.6086627E-1,7.354877E-1,-2.711097E-1,8.147791E-1,-7.452188E-1,2.114894E-1,9.558541E-1,2.1361864E-1,-8.0483174E-1,-3.0297568E-1,1.0776621E0,-9.943311E-1,-1.7516454E-1,8.108204E-1,-3.8554516E-1,9.893269E-1,-2.6845473E-1,-9.746923E-2,8.882187E-1,-1.0041429E0,-7.630129E-3,-9.454356E-1,4.1632944E-1,1.1143398E0,-6.4093184E-1,6.6583735E-1,-1.0275995E0,5.2413076E-1,-5.4307914E-1,1.0379199E0,-4.989757E-2,2.5161657E-1,-7.783805E-1,1.0463688E0,4.1378754E-1,7.983217E-1,-7.940056E-1,-5.9698474E-1,4.9829826E-1,-1.0225352E0,9.8881894E-1,-1.1545208E0,-3.532274E-1,-5.5261815E-1,7.6597923E-1,2.1608102E-1,-1.0129623E0,-3.888438E-1,9.219563E-1,1.1316975E0,-3.9509234E-1,-3.584503E-1,1.8244375E-1,1.1768012E0,-8.259033E-1,-1.0886124E0,-3.7086686E-1,-4.4083634E-1,7.7912444E-1,-7.976302E-1,3.774457E-2,3.2913888E-1,-8.504328E-2,-2.1286844E-1,2.710643E-1,-2.0294252E-1,1.7069735E-1,-3.0008706E-1,8.573394E-2,3.1914145E-1,-8.248101E-2,-1.7103362E-1,2.3355998E-1,-1.5351927E-1,3.7666228E-1,-3.092056E-1,2.0256676E-1,-2.596136E-1,6.775202E-2,-1.4595191E-1,2.2861785E-1,-4.19143E-1,8.053899E-2,-2.0617637E-1,3.2180747E-1,1.6707377E-1,-3.537038E-1,1.0036793E-1,-3.1381714E-1,2.4362224E-1,-2.575405E-1,-1.808985E-1,3.0657873E-1,1.9372343E-1,-3.2115442E-1,-2.3526274E-1,2.3710895E-1,-1.1735512E-1,3.311682E-1,-1.3606907E-1,3.4169456E-1,-3.1860635E-1,1.9496427E-1,3.9832187E-1,-4.4787645E-2,-3.644986E-1,2.1142922E-1,-3.34172E-1,8.117635E-3,-2.5076875E-1,1.2818079E-1,-2.332545E-1,2.9180124E-1,1.0869611E-1,3.6169147E-1,-3.0389416E-1,-9.287751E-2,-2.4279372E-1,1.4225797E-1],"categories":[],"categories_nodes":[],"categories_segments":[],"categories_sizes":[],"default_left":[0,0,0,0,0,0,0,0,0,0,0,0,0,0,0,0,0,0,0,0,0,0,0,0,0,0,0,0,0,0,0,0,0,0,0,0,0,0,0,0,0,0,0,0,0,0,0,0,0,0,0,0,0,0,0,0,0,0,0,0,0,0,0,0,0,0,0,0,0,0,0,0,0,0,0,0,0,0,0,0,0,0,0,0,0,0,0,0,0,0,0,0,0,0,0,0,0,0,0,0,0,0,0,0,0,0,0,0,0,0,0,0,0,0,0,0,0,0,0,0,0],"id":5,"left_children":[1,3,5,7,9,11,13,15,17,19,21,23,25,27,29,31,33,35,37,39,41,43,45,47,49,51,53,55,57,59,61,63,65,67,69,71,73,75,77,79,81,83,85,87,89,91,93,-1,95,97,99,101,103,-1,-1,105,107,109,111,113,115,117,119,-1,-1,-1,-1,-1,-1,-1,-1,-1,-1,-1,-1,-1,-1,-1,-1,-1,-1,-1,-1,-1,-1,-1,-1,-1,-1,-1,-1,-1,-1,-1,-1,-1,-1,-1,-1,-1,-1,-1,-1,-1,-1,-1,-1,-1,-1,-1,-1,-1,-1,-1,-1,-1,-1,-1,-1,-1,-1],"loss_changes":[9.925556E2,5.2455176E2,8.396676E2,2.0751562E2,1.8832631E2,1.2436032E2,2.6851086E2,1.9132877E2,5.2148926E1,8.023686E1,5.5025223E1,3.7896976E1,2.226944E1,7.339331E1,1.4863133E2,5.2188232E1,6.73026E1,4.0031616E1,1.9964329E1,7.835288E1,2.4199944E1,2.6713074E1,3.0054655E1,5.5856514E0,1.622857E1,9.228943E0,6.1096272E0,2.1147364E1,5.132483E1,4.9379986E1,5.596263E1,1.6826447E1,3.6263397E1,3.0726707E1,3.9508972E1,2.611267E1,4.0923847E1,7.7574897E0,8.902682E0,3.1802956E1,3.1583729E1,3.530859E0,1.691903E1,1.0072479E1,2.5814682E1,1.8150198E1,1.0941187E1,0E0,4.6917458E0,7.958108E0,6.22336E0,4.3460693E0,3.8624487E0,0E0,0E0,4.227062E0,5.2282825E0,3.335034E1,4.1651474E1,2.0883448E1,2.7650078E1,2.7335587E1,4.3353928E1,0E0,0E0,0E0,0E0,0E0,0E0,0E0,0E0,0E0,0E0,0E0,0E0,0E0,0E0,0E0,0E0,0E0,0E0,0E0,0E0,0E0,0E0,0E0,0E0,0E0,0E0,0E0,0E0,0E0,0E0,0E0,0E0,0E0,0E0,0E0,0E0,0E0,0E0,0E0,0E0,0E0,0E0,0E0,0E0,0E0,0E0,0E0,0E0,0E0,0E0,0E0,0E0,0E0,0E0,0E0,0E0,0E0,0E0],"parents":[2147483647,0,0,1,1,2,2,3,3,4,4,5,5,6,6,7,7,8,8,9,9,10,10,11,11,12,12,13,13,14,14,15,15,16,16,17,17,18,18,19,19,20,20,21,21,22,22,23,23,24,24,25,25,26,26,27,27,28,28,29,29,30,30,31,31,32,32,33,33,34,34,35,35,36,36,37,37,38,38,39,39,40,40,41,41,42,42,43,43,44,44,45,45,46,46,48,48,49,49,50,50,51,51,52,52,55,55,56,56,57,57,58,58,59,59,60,60,61,61,62,62],"right_children":[2,4,6,8,10,12,14,16,18,20,22,24,26,28,30,32,34,36,38,40,42,44,46,48,50,52,54,56,58,60,62,64,66,68,70,72,74,76,78,80,82,84,86,88,90,92,94,-1,96,98,100,102,104,-1,-1,106,108,110,112,114,116,118,120,-1,-1,-1,-1,-1,-1,-1,-1,-1,-1,-1,-1,-1,-1,-1,-1,-1,-1,-1,-1,-1,-1,-1,-1,-1,-1,-1,-1,-1,-1,-1,-1,-1,-1,-1,-1,-1,-1,-1,-1,-1,-1,-1,-1,-1,-1,-1,-1,-1,-1,-1,-1,-1,-1,-1,-1,-1,-1],"split_conditions":[-1.6297586E-2,2.0821558E-2,-7.459996E-2,-3.057731E-3,1.5190139E-3,3.7027624E-2,3.0606527E-2,-5.076537E-2,4.6580713E-2,3.694724E-2,4.8682842E-2,-2.644369E-2,2.8702222E-2,-1.1466922E-1,-3.0967748E-2,1.9465873E-4,-2.7539197E-2,2.345703E-2,-8.345524E-3,2.116158E-2,-7.2852105E-2,3.8514633E-2,2.1478662E-2,-1.2561743E-1,1.4183313E-2,3.3538528E-2,2.304173E-2,-4.0867054E-3,3.7873738E-2,-6.0273517E-2,2.5425034E-2,4.3014403E-2,3.7728492E-2,-1.616725E-2,6.881325E-2,7.9125695E-2,-2.6076846E-3,7.161263E-4,-3.360085E-8,5.487831E-2,-3.7987836E-2,1.2774399E-2,-5.143587E-2,-7.9176426E-2,1.9375391E-2,-6.758198E-2,-4.423098E-2,2.1608102E-1,-9.104834E-2,1.1027698E-2,-7.583162E-2,-7.208696E-2,4.340851E-2,-3.584503E-1,1.8244375E-1,8.413989E-3,6.439353E-2,1.5183581E-32,4.0288933E-2,-3.7612725E-8,1.9775812E-2,2.1406643E-2,-4.0271793E-2,3.2913888E-1,-8.504328E-2,-2.1286844E-1,2.710643E-1,-2.0294252E-1,1.7069735E-1,-3.0008706E-1,8.573394E-2,3.1914145E-1,-8.248101E-2,-1.7103362E-1,2.3355998E-1,-1.5351927E-1,3.7666228E-1,-3.092056E-1,2.0256676E-1,-2.596136E-1,6.775202E-2,-1.4595191E-1,2.2861785E-1,-4.19143E-1,8.053899E-2,-2.0617637E-1,3.2180747E-1,1.6707377E-1,-3.537038E-1,1.0036793E-1,-3.1381714E-1,2.4362224E-1,-2.575405E-1,-1.808985E-1,3.0657873E-1,1.9372343E-1,-3.2115442E-1,-2.3526274E-1,2.3710895E-1,-1.1735512E-1,3.311682E-1,-1.3606907E-1,3.4169456E-1,-3.1860635E-1,1.9496427E-1,3.9832187E-1,-4.4787645E-2,-3.644986E-1,2.1142922E-1,-3.34172E-1,8.117635E-3,-2.5076875E-1,1.2818079E-1,-2.332545E-1,2.9180124E-1,1.0869611E-1,3.6169147E-1,-3.0389416E-1,-9.287751E-2,-2.4279372E-1,1.4225797E-1],"split_indices":[161,299,14,133,94,38,240,77,195,133,212,5,15,125,269,94,94,24,264,304,331,345,345,98,285,340,382,68,79,297,345,162,7,357,212,364,228,229,319,240,17,233,229,34,330,281,47,0,374,382,26,182,112,0,0,52,304,127,200,319,345,212,297,0,0,0,0,0,0,0,0,0,0,0,0,0,0,0,0,0,0,0,0,0,0,0,0,0,0,0,0,0,0,0,0,0,0,0,0,0,0,0,0,0,0,0,0,0,0,0,0,0,0,0,0,0,0,0,0,0,0],"split_type":[0,0,0,0,0,0,0,0,0,0,0,0,0,0,0,0,0,0,0,0,0,0,0,0,0,0,0,0,0,0,0,0,0,0,0,0,0,0,0,0,0,0,0,0,0,0,0,0,0,0,0,0,0,0,0,0,0,0,0,0,0,0,0,0,0,0,0,0,0,0,0,0,0,0,0,0,0,0,0,0,0,0,0,0,0,0,0,0,0,0,0,0,0,0,0,0,0,0,0,0,0,0,0,0,0,0,0,0,0,0,0,0,0,0,0,0,0,0,0,0,0],"sum_hessian":[4.8363047E3,2.5241423E3,2.3121624E3,1.7978638E3,7.2627856E2,4.2111517E2,1.8910472E3,5.328311E2,1.2650326E3,3.8092282E2,3.4535577E2,8.0154205E1,3.4096097E2,1.3154531E3,5.755942E2,2.657255E2,2.6710565E2,1.2315537E3,3.3478943E1,2.6128723E2,1.1963557E2,2.7607394E2,6.928181E1,4.2172623E1,3.7981586E1,3.3418057E2,6.780389E0,2.5469122E1,1.289984E3,1.9828645E2,3.773077E2,2.100881E2,5.5637386E1,1.02009766E2,1.6509589E2,1.1197562E3,1.1179751E2,1.08784895E1,2.2600452E1,1.4212329E2,1.19163956E2,5.525348E0,1.1411022E2,2.2363498E2,5.243898E1,4.0814617E1,2.846719E1,1.2664425E0,4.090618E1,1.4740076E1,2.324151E1,3.3062875E2,3.551812E0,4.727438E0,2.052951E0,1.9128265E1,6.3408556E0,1.1797255E3,1.10258545E2,4.1293087E1,1.5699338E2,2.6207693E2,1.1523078E2,2.0124055E2,8.84755E0,3.3036255E1,2.2601131E1,2.57062E1,7.6303566E1,1.3665848E2,2.8437403E1,1.1053647E3,1.4391463E1,3.008374E1,8.171377E1,2.7835798E0,8.09491E0,1.972191E1,2.8785415E0,1.07127945E2,3.4995342E1,2.4995144E1,9.416881E1,4.218927E0,1.3064215E0,5.0952377E0,1.09014984E2,2.848525E0,2.2078645E2,2.6574755E1,2.5864227E1,7.169488E0,3.364513E1,4.2704315E0,2.4196758E1,1.0290122E0,3.9877167E1,1.1289795E1,3.4502804E0,2.6883292E0,2.055318E1,1.2320656E0,3.293967E2,2.158126E0,1.3936858E0,1.7172428E1,1.9558371E0,5.22014E0,1.1207156E0,1.1535735E3,2.6151932E1,6.963743E1,4.0621113E1,3.371303E1,7.5800576E0,8.033585E1,7.665752E1,1.8109285E2,8.098407E1,3.8893055E1,7.633772E1],"tree_param":{"num_deleted":"0","num_feature":"387","num_nodes":"121","size_leaf_vector":"1"}},{"base_weights":[1.2288921E-2,-6.527966E-1,2.7811584E-1,-9.2349005E-1,2.2717224E-1,-6.8759793E-1,4.3437025E-1,-9.9867284E-1,3.78152E-1,8.994015E-1,-3.010551E-1,-8.427407E-1,3.892087E-1,-2.0407803E-1,6.587109E-1,-1.0505325E0,2.760979E-1,9.052011E-1,-7.7087533E-1,1.0619946E0,-1.2748915E-1,3.8268706E-1,-6.034164E-1,-9.8409027E-1,2.6777375E-1,9.089459E-1,-5.705681E-1,-6.707837E-1,3.5707676E-1,8.2198405E-1,2.074173E-2,-1.0693793E0,2.3789619E-1,7.7389294E-1,-7.664538E-1,1.038306E0,-3.1035653E-1,-1.1873738E0,6.667702E-1,1.0996301E0,-2.18696E-1,-8.797871E-1,8.5322237E-1,-4.707515E-1,9.538346E-1,-8.6897886E-1,1.8849342E-1,-1.0316415E0,1.013907E0,6.6827816E-1,-9.8981446E-1,1.042902E0,-2.8144723E-1,-9.44287E-1,2.4787827E-1,3.309968E-1,-8.3147526E-1,-1.4512123E-1,8.383678E-1,9.2427486E-1,1.7408308E-1,4.8056558E-1,-5.1812005E-1,-3.2964823E-1,-1.0664893E-1,3.309073E-1,-2.1785665E-1,-2.7588353E-1,2.774652E-1,6.858904E-2,-4.361366E-1,-1.4078012E-1,3.4408107E-1,1.2720439E-1,-4.2098498E-1,-3.692286E-2,2.8448778E-1,3.3821556E-1,-1.839077E-1,-3.598109E-1,2.2035637E-1,-7.420574E-2,3.1424075E-1,7.1646124E-2,-3.1501758E-1,-1.404459E-2,3.7354836E-1,1.1807964E-1,-2.9146695E-1,2.9740664E-1,-1.7469007E-1,8.483319E-2,-3.246354E-1,3.3558843E-1,4.5046527E-2,2.938993E-1,-6.4985335E-2,-3.6663702E-1,2.6422126E-2,-1.7429937E-2,3.3589402E-1,-3.446809E-1,1.8084206E-2,2.2920242E-1,-2.9592007E-1,-2.787204E-1,2.6102325E-2,-2.5490224E-1,8.729633E-2,-1.9644459E-1,2.8672692E-1,7.208395E-2,2.9853094E-1,1.8503653E-1,-2.0161717E-1,1.9892557E-1,-1.7792353E-1,-2.6166332E-1,1.7368315E-2],"categories":[],"categories_nodes":[],"categories_segments":[],"categories_sizes":[],"default_left":[0,0,0,0,0,0,0,0,0,0,0,0,0,0,0,0,0,0,0,0,0,0,0,0,0,0,0,0,0,0,0,0,0,0,0,0,0,0,0,0,0,0,0,0,0,0,0,0,0,0,0,0,0,0,0,0,0,0,0,0,0,0,0,0,0,0,0,0,0,0,0,0,0,0,0,0,0,0,0,0,0,0,0,0,0,0,0,0,0,0,0,0,0,0,0,0,0,0,0,0,0,0,0,0,0,0,0,0,0,0,0,0,0,0,0,0,0,0,0],"id":6,"left_children":[1,3,5,7,9,11,13,15,17,19,21,23,25,27,29,31,33,35,37,39,41,43,45,47,49,51,53,55,57,59,61,63,65,67,69,71,-1,73,75,77,-1,79,81,83,85,87,89,91,93,95,97,99,-1,101,-1,103,105,107,109,111,113,115,117,-1,-1,-1,-1,-1,-1,-1,-1,-1,-1,-1,-1,-1,-1,-1,-1,-1,-1,-1,-1,-1,-1,-1,-1,-1,-1,-1,-1,-1,-1,-1,-1,-1,-1,-1,-1,-1,-1,-1,-1,-1,-1,-1,-1,-1,-1,-1,-1,-1,-1,-1,-1,-1,-1,-1,-1],"loss_changes":[7.238702E2,2.7870734E2,4.41695E2,8.7896484E1,9.8221985E1,6.844913E1,3.6084207E2,5.620233E1,3.0711252E1,2.0443466E1,3.232038E1,5.6259995E1,2.6475485E1,1.7193422E2,1.941217E2,1.9994019E1,1.8162378E1,9.965027E0,1.0446705E1,7.8866196E0,1.3675764E1,2.3946232E1,2.2879143E1,3.1131592E1,2.1344744E1,9.426073E0,1.0643195E1,5.7947433E1,7.222807E1,9.818848E1,9.460927E1,1.6455994E1,1.1258087E1,6.836735E0,8.158815E0,5.897339E0,0E0,5.069906E0,1.0645105E0,5.6036987E0,0E0,6.2495756E0,1.9934182E0,8.470394E0,8.573257E0,1.0881454E1,1.787205E1,2.0860443E1,5.435028E-1,8.958823E0,2.6923313E0,2.7948227E0,0E0,3.2295895E0,0E0,2.9412212E1,2.7780838E1,4.5366974E1,2.7353195E1,6.183972E1,7.667228E1,4.0760963E1,3.5911407E1,0E0,0E0,0E0,0E0,0E0,0E0,0E0,0E0,0E0,0E0,0E0,0E0,0E0,0E0,0E0,0E0,0E0,0E0,0E0,0E0,0E0,0E0,0E0,0E0,0E0,0E0,0E0,0E0,0E0,0E0,0E0,0E0,0E0,0E0,0E0,0E0,0E0,0E0,0E0,0E0,0E0,0E0,0E0,0E0,0E0,0E0,0E0,0E0,0E0,0E0,0E0,0E0,0E0,0E0,0E0,0E0],"parents":[2147483647,0,0,1,1,2,2,3,3,4,4,5,5,6,6,7,7,8,8,9,9,10,10,11,11,12,12,13,13,14,14,15,15,16,16,17,17,18,18,19,19,20,20,21,21,22,22,23,23,24,24,25,25,26,26,27,27,28,28,29,29,30,30,31,31,32,32,33,33,34,34,35,35,37,37,38,38,39,39,41,41,42,42,43,43,44,44,45,45,46,46,47,47,48,48,49,49,50,50,51,51,53,53,55,55,56,56,57,57,58,58,59,59,60,60,61,61,62,62],"right_children":[2,4,6,8,10,12,14,16,18,20,22,24,26,28,30,32,34,36,38,40,42,44,46,48,50,52,54,56,58,60,62,64,66,68,70,72,-1,74,76,78,-1,80,82,84,86,88,90,92,94,96,98,100,-1,102,-1,104,106,108,110,112,114,116,118,-1,-1,-1,-1,-1,-1,-1,-1,-1,-1,-1,-1,-1,-1,-1,-1,-1,-1,-1,-1,-1,-1,-1,-1,-1,-1,-1,-1,-1,-1,-1,-1,-1,-1,-1,-1,-1,-1,-1,-1,-1,-1,-1,-1,-1,-1,-1,-1,-1,-1,-1,-1,-1,-1,-1,-1],"split_conditions":[-4.5906115E-2,2.3827223E-2,-2.8961226E-2,1.452333E-32,-4.9850587E-2,4.816382E-2,-3.7987836E-2,-3.285457E-8,4.223002E-2,-5.7584236E-33,-5.9102446E-2,8.1344925E-2,-2.724024E-2,1.7589977E-2,1.3805066E-2,9.941275E-2,-1.3014454E-3,5.807062E-2,3.6357805E-2,6.0969826E-2,-3.9734807E-8,4.385515E-3,3.1120231E-2,1.176374E-32,1.4805355E-2,3.578436E-2,7.443915E-2,-5.7631332E-2,2.5425034E-2,2.205034E-2,-4.6788517E-2,6.254469E-2,-2.9923014E-2,-8.8096365E-2,-2.874835E-2,-4.5026686E-2,-3.1035653E-1,-6.172117E-4,1.939532E-2,2.3935562E-2,-2.18696E-1,2.0478962E-2,-1.8783404E-2,2.2729885E-2,-5.5830884E-3,-7.384447E-2,-4.2741157E-2,-8.9874744E-2,2.1945802E-2,-9.498332E-3,4.115225E-2,-1.779783E-2,-2.8144723E-1,3.943821E-2,2.4787827E-1,1.9987093E-2,-3.998871E-8,-2.070872E-3,-4.0008537E-2,-4.951032E-2,1.3118703E-4,4.3491006E-2,2.7472101E-2,-3.2964823E-1,-1.0664893E-1,3.309073E-1,-2.1785665E-1,-2.7588353E-1,2.774652E-1,6.858904E-2,-4.361366E-1,-1.4078012E-1,3.4408107E-1,1.2720439E-1,-4.2098498E-1,-3.692286E-2,2.8448778E-1,3.3821556E-1,-1.839077E-1,-3.598109E-1,2.2035637E-1,-7.420574E-2,3.1424075E-1,7.1646124E-2,-3.1501758E-1,-1.404459E-2,3.7354836E-1,1.1807964E-1,-2.9146695E-1,2.9740664E-1,-1.7469007E-1,8.483319E-2,-3.246354E-1,3.3558843E-1,4.5046527E-2,2.938993E-1,-6.4985335E-2,-3.6663702E-1,2.6422126E-2,-1.7429937E-2,3.3589402E-1,-3.446809E-1,1.8084206E-2,2.2920242E-1,-2.9592007E-1,-2.787204E-1,2.6102325E-2,-2.5490224E-1,8.729633E-2,-1.9644459E-1,2.8672692E-1,7.208395E-2,2.9853094E-1,1.8503653E-1,-2.0161717E-1,1.9892557E-1,-1.7792353E-1,-2.6166332E-1,1.7368315E-2],"split_indices":[79,5,200,127,14,270,17,319,148,223,104,240,96,233,162,228,312,80,382,243,319,126,233,127,140,135,362,177,345,358,98,49,96,70,178,382,0,153,273,29,0,147,308,214,253,290,98,96,125,94,78,333,0,83,0,378,319,300,211,234,269,276,240,0,0,0,0,0,0,0,0,0,0,0,0,0,0,0,0,0,0,0,0,0,0,0,0,0,0,0,0,0,0,0,0,0,0,0,0,0,0,0,0,0,0,0,0,0,0,0,0,0,0,0,0,0,0,0,0],"split_type":[0,0,0,0,0,0,0,0,0,0,0,0,0,0,0,0,0,0,0,0,0,0,0,0,0,0,0,0,0,0,0,0,0,0,0,0,0,0,0,0,0,0,0,0,0,0,0,0,0,0,0,0,0,0,0,0,0,0,0,0,0,0,0,0,0,0,0,0,0,0,0,0,0,0,0,0,0,0,0,0,0,0,0,0,0,0,0,0,0,0,0,0,0,0,0,0,0,0,0,0,0,0,0,0,0,0,0,0,0,0,0,0,0,0,0,0,0,0,0],"sum_hessian":[4.0923162E3,1.1681665E3,2.9241497E3,8.933174E2,2.748491E2,4.0676727E2,2.5173823E3,8.44757E2,4.856037E1,1.2063046E2,1.5421863E2,3.5573193E2,5.1035328E1,6.545882E2,1.8627941E3,8.119035E2,3.2853565E1,3.3435837E1,1.5124532E1,1.0411172E2,1.6518747E1,4.7205406E1,1.0701322E2,3.1566678E2,4.0065155E1,3.314153E1,1.7893799E1,3.5726218E2,2.9732602E2,1.4829736E3,3.798205E2,8.0036584E2,1.1537615E1,2.2410667E1,1.0442898E1,3.1723656E1,1.7121829E0,1.1862071E1,3.262461E0,1.0234702E2,1.7646941E0,9.40621E0,7.112538E0,1.899615E1,2.8209259E1,8.006617E1,2.6947056E1,3.0880115E2,6.8656273E0,3.0743023E1,9.322135E0,3.1306494E1,1.8350334E0,1.4372455E1,3.5213447E0,4.9238777E1,3.0802338E2,1.4584456E2,1.5148146E2,1.2803975E3,2.0257619E2,2.0499849E2,1.74822E2,7.6814056E2,3.22253E1,6.004933E0,5.5326815E0,1.417834E0,2.0992832E1,4.538984E0,5.903914E0,1.9091227E0,2.9814533E1,1.287709E0,1.0574362E1,1.0051644E0,2.2572966E0,1.0105113E2,1.2958891E0,8.06636E0,1.3398489E0,1.025996E0,6.0865417E0,8.802293E0,1.0193855E1,6.5501337E0,2.1659126E1,5.802984E0,7.426318E1,1.3058802E1,1.3888255E1,1.1249876E1,2.9755127E2,5.8600736E0,1.0055536E0,2.2661552E1,8.0814705E0,7.559156E0,1.7629791E0,2.055834E0,2.925066E1,1.1820654E1,2.551801E0,3.737437E1,1.1864407E1,2.7842773E2,2.9595646E1,5.539815E1,9.04464E1,1.0707231E1,1.4077423E2,1.20557236E2,1.1598402E3,1.3317128E2,6.94049E1,1.7553918E2,2.9459295E1,1.07948845E2,6.687317E1],"tree_param":{"num_deleted":"0","num_feature":"387","num_nodes":"119","size_leaf_vector":"1"}},{"base_weights":[9.607951E-3,-5.5467594E-1,2.8236783E-1,8.3079174E-2,-8.743943E-1,-8.552593E-2,6.4435893E-1,-7.908268E-1,4.2812487E-1,-9.8442715E-1,-2.4909621E-1,1.911264E-1,-6.5016896E-1,7.4931866E-1,-4.2858446E-1,-9.639061E-1,3.4082815E-1,-4.4006702E-1,6.9923466E-1,-1.0424867E0,-4.2117733E-1,-5.812646E-1,6.3770765E-1,4.7022673E-1,-4.4640964E-1,5.995546E-1,-7.6195586E-1,8.457046E-1,6.1682863E-3,3.5269424E-1,-7.496282E-1,5.0409704E-1,-1.0303102E0,1.0202864E0,-7.8900886E-1,2.3760402E-1,-7.9863554E-1,8.6350906E-1,-2.046814E-1,-1.055183E0,1.7716081E-1,-6.3406175E-1,1.5176883E0,-7.5076145E-1,6.480781E-1,-5.5105275E-1,1.0413554E0,6.924967E-1,-2.8365585E-1,-9.587809E-3,-9.205864E-1,-7.31164E-1,9.309493E-1,8.007244E-1,-8.283248E-1,9.2324406E-1,7.694641E-2,-5.342663E-1,5.84113E-1,-4.696157E-1,9.397681E-1,-9.5409405E-1,1.0236926E-1,2.5305158E-1,-1.09898746E-1,-3.1929767E-1,1.04470246E-1,4.8223613E-3,3.3965966E-1,-3.680125E-1,8.192447E-2,-1.4659981E-1,2.4940354E-1,-2.861562E-1,1.21009685E-1,2.887666E-1,-3.6068175E-2,2.1505927E-1,-2.1030912E-1,-3.213606E-1,-4.695192E-2,2.5430351E-1,-3.558459E-1,-2.3424329E-1,1.4887893E-1,5.763548E-1,-7.290564E-2,-2.5912273E-1,2.2116007E-1,-2.52121E-1,3.5303268E-1,-2.8192714E-1,2.4484548E-1,-2.644298E-2,3.8285983E-1,6.9470424E-3,2.5498292E-1,-2.4337126E-1,6.938097E-2,1.15848064E-1,-1.7615756E-1,-2.9695943E-1,2.525272E-1,-2.9894647E-1,1.0213349E-1,3.3864203E-1,-2.2100094E-1,2.9589805E-1,-1.8590163E-1,-2.7917793E-1,4.599219E-2,3.004477E-1,1.4848547E-1,-2.2556566E-1,1.5928733E-1,-2.6549828E-1,1.8443044E-1,2.8902942E-1,-8.3719514E-2,1.1884115E-1,-2.5661215E-1,-9.152457E-2,3.7860093E-1,-3.118082E-1,6.8125896E-2,2.2788605E-1,-1.9579126E-1],"categories":[],"categories_nodes":[],"categories_segments":[],"categories_sizes":[],"default_left":[0,0,0,0,0,0,0,0,0,0,0,0,0,0,0,0,0,0,0,0,0,0,0,0,0,0,0,0,0,0,0,0,0,0,0,0,0,0,0,0,0,0,0,0,0,0,0,0,0,0,0,0,0,0,0,0,0,0,0,0,0,0,0,0,0,0,0,0,0,0,0,0,0,0,0,0,0,0,0,0,0,0,0,0,0,0,0,0,0,0,0,0,0,0,0,0,0,0,0,0,0,0,0,0,0,0,0,0,0,0,0,0,0,0,0,0,0,0,0,0,0,0,0,0,0,0,0],"id":7,"left_children":[1,3,5,7,9,11,13,15,17,19,21,23,25,27,29,31,33,35,37,39,41,43,45,47,49,51,53,55,57,59,61,63,65,67,69,71,73,75,77,79,81,83,85,87,89,91,93,95,97,99,101,103,105,107,109,111,113,115,117,119,121,123,125,-1,-1,-1,-1,-1,-1,-1,-1,-1,-1,-1,-1,-1,-1,-1,-1,-1,-1,-1,-1,-1,-1,-1,-1,-1,-1,-1,-1,-1,-1,-1,-1,-1,-1,-1,-1,-1,-1,-1,-1,-1,-1,-1,-1,-1,-1,-1,-1,-1,-1,-1,-1,-1,-1,-1,-1,-1,-1,-1,-1,-1,-1,-1,-1],"loss_changes":[5.396193E2,2.3302408E2,3.148117E2,1.15647896E2,5.211853E1,1.8336978E2,1.3449414E2,2.1599113E1,6.499051E1,2.0713867E1,3.4311436E1,1.4044016E2,5.4379547E1,7.775696E1,2.705257E1,9.726746E0,1.2431308E1,1.6228945E1,3.1329964E1,9.256836E0,2.6603947E1,1.8061983E1,1.586862E1,9.212585E1,4.9800636E1,1.4903005E1,3.7453598E1,5.7211792E1,3.955648E1,1.5785716E1,1.3339909E1,1.7149719E0,4.6234283E0,1.0936613E0,3.2410934E0,1.0587735E1,8.481285E0,1.7432602E1,1.5630397E1,8.179382E0,7.3044124E0,9.789637E0,5.0427027E0,1.317622E1,9.454287E0,5.408371E0,6.516054E0,4.4662354E1,3.4316868E1,2.9069124E1,1.4909973E1,2.3267565E0,9.496195E0,4.55523E0,3.4352554E1,2.8755737E1,3.3941494E1,2.692124E1,2.030483E1,4.98328E0,7.95772E0,6.4199867E0,8.244368E0,0E0,0E0,0E0,0E0,0E0,0E0,0E0,0E0,0E0,0E0,0E0,0E0,0E0,0E0,0E0,0E0,0E0,0E0,0E0,0E0,0E0,0E0,0E0,0E0,0E0,0E0,0E0,0E0,0E0,0E0,0E0,0E0,0E0,0E0,0E0,0E0,0E0,0E0,0E0,0E0,0E0,0E0,0E0,0E0,0E0,0E0,0E0,0E0,0E0,0E0,0E0,0E0,0E0,0E0,0E0,0E0,0E0,0E0,0E0,0E0,0E0,0E0,0E0,0E0],"parents":[2147483647,0,0,1,1,2,2,3,3,4,4,5,5,6,6,7,7,8,8,9,9,10,10,11,11,12,12,13,13,14,14,15,15,16,16,17,17,18,18,19,19,20,20,21,21,22,22,23,23,24,24,25,25,26,26,27,27,28,28,29,29,30,30,31,31,32,32,33,33,34,34,35,35,36,36,37,37,38,38,39,39,40,40,41,41,42,42,43,43,44,44,45,45,46,46,47,47,48,48,49,49,50,50,51,51,52,52,53,53,54,54,55,55,56,56,57,57,58,58,59,59,60,60,61,61,62,62],"right_children":[2,4,6,8,10,12,14,16,18,20,22,24,26,28,30,32,34,36,38,40,42,44,46,48,50,52,54,56,58,60,62,64,66,68,70,72,74,76,78,80,82,84,86,88,90,92,94,96,98,100,102,104,106,108,110,112,114,116,118,120,122,124,126,-1,-1,-1,-1,-1,-1,-1,-1,-1,-1,-1,-1,-1,-1,-1,-1,-1,-1,-1,-1,-1,-1,-1,-1,-1,-1,-1,-1,-1,-1,-1,-1,-1,-1,-1,-1,-1,-1,-1,-1,-1,-1,-1,-1,-1,-1,-1,-1,-1,-1,-1,-1,-1,-1,-1,-1,-1,-1,-1,-1,-1,-1,-1,-1],"split_conditions":[-2.9750182E-3,-2.3758149E-2,1.1707423E-2,-1.2286766E-2,3.2935355E-2,1.0740507E-2,5.723334E-2,3.6415294E-2,-2.8574582E-2,6.1053604E-2,3.1038312E-2,2.0443588E-2,-7.3789634E-2,5.0302256E-2,-4.542537E-2,-9.552265E-2,-1.1738556E-2,8.783796E-3,-1.4176399E-3,-2.7682418E-8,6.534051E-2,4.9311817E-2,-6.5383157E-3,2.957485E-2,3.0177006E-2,5.73932E-3,-9.598308E-2,1.4393278E-2,6.9445353E-3,3.7511922E-3,5.7068955E-2,-1.885419E-2,7.825144E-2,-6.644059E-2,-8.872114E-3,5.8973883E-3,6.624835E-2,1.3128951E-2,-1.4049538E-2,7.8955606E-2,9.042217E-3,5.3974252E-2,-1.8525168E-2,1.241112E-32,-1.0363139E-2,6.612581E-2,6.304568E-4,-2.1636635E-2,8.1860935E-3,-1.9116204E-2,8.189654E-2,2.5529055E-2,5.985735E-2,1.47080105E-2,5.5269606E-2,-1.4339379E-2,7.5859665E-3,-4.139636E-8,-3.1284995E-2,-5.6599546E-3,-4.679018E-2,-3.5408924E-8,-1.1498251E-2,2.5305158E-1,-1.09898746E-1,-3.1929767E-1,1.04470246E-1,4.8223613E-3,3.3965966E-1,-3.680125E-1,8.192447E-2,-1.4659981E-1,2.4940354E-1,-2.861562E-1,1.21009685E-1,2.887666E-1,-3.6068175E-2,2.1505927E-1,-2.1030912E-1,-3.213606E-1,-4.695192E-2,2.5430351E-1,-3.558459E-1,-2.3424329E-1,1.4887893E-1,5.763548E-1,-7.290564E-2,-2.5912273E-1,2.2116007E-1,-2.52121E-1,3.5303268E-1,-2.8192714E-1,2.4484548E-1,-2.644298E-2,3.8285983E-1,6.9470424E-3,2.5498292E-1,-2.4337126E-1,6.938097E-2,1.15848064E-1,-1.7615756E-1,-2.9695943E-1,2.525272E-1,-2.9894647E-1,1.0213349E-1,3.3864203E-1,-2.2100094E-1,2.9589805E-1,-1.8590163E-1,-2.7917793E-1,4.599219E-2,3.004477E-1,1.4848547E-1,-2.2556566E-1,1.5928733E-1,-2.6549828E-1,1.8443044E-1,2.8902942E-1,-8.3719514E-2,1.1884115E-1,-2.5661215E-1,-9.152457E-2,3.7860093E-1,-3.118082E-1,6.8125896E-2,2.2788605E-1,-1.9579126E-1],"split_indices":[173,94,133,240,304,94,92,216,216,240,47,316,195,330,207,374,335,324,77,319,1,171,48,92,264,200,14,314,183,336,212,105,226,26,226,285,211,178,4,70,265,351,109,127,372,200,352,48,233,77,270,244,310,325,345,98,240,319,98,243,155,319,281,0,0,0,0,0,0,0,0,0,0,0,0,0,0,0,0,0,0,0,0,0,0,0,0,0,0,0,0,0,0,0,0,0,0,0,0,0,0,0,0,0,0,0,0,0,0,0,0,0,0,0,0,0,0,0,0,0,0,0,0,0,0,0,0],"split_type":[0,0,0,0,0,0,0,0,0,0,0,0,0,0,0,0,0,0,0,0,0,0,0,0,0,0,0,0,0,0,0,0,0,0,0,0,0,0,0,0,0,0,0,0,0,0,0,0,0,0,0,0,0,0,0,0,0,0,0,0,0,0,0,0,0,0,0,0,0,0,0,0,0,0,0,0,0,0,0,0,0,0,0,0,0,0,0,0,0,0,0,0,0,0,0,0,0,0,0,0,0,0,0,0,0,0,0,0,0,0,0,0,0,0,0,0,0,0,0,0,0,0,0,0,0,0,0],"sum_hessian":[3.5039617E3,1.1414675E3,2.3624941E3,3.8140457E2,7.600629E2,1.172073E3,1.1904213E3,1.0759757E2,2.73807E2,6.458408E2,1.1422207E2,7.8709143E2,3.849816E2,1.0846207E3,1.05800446E2,9.34528E1,1.4144771E1,6.5007195E1,2.0879982E2,5.847176E2,6.112325E1,8.334735E1,3.0874718E1,5.4761786E2,2.3947353E2,3.1250689E1,3.537309E2,9.5997485E2,1.2464591E2,3.0784931E1,7.501551E1,3.7590716E0,8.9693726E1,8.893428E0,5.2513433E0,2.2611082E1,4.2396114E1,1.7672684E2,3.2072983E1,5.788269E2,5.8906665E0,5.5682384E1,5.440866E0,7.359032E1,9.757039E0,7.7336354E0,2.314108E1,4.2298813E2,1.24629745E2,1.2517752E2,1.1429601E2,5.990291E0,2.5260397E1,1.3960531E1,3.397704E2,8.718376E2,8.8137276E1,6.44523E1,6.0193604E1,1.2906694E1,1.7878237E1,6.0400517E1,1.4614997E1,2.7267494E0,1.0323222E0,8.775629E1,1.9374437E0,1.0064036E0,7.887024E0,3.6090279E0,1.6423154E0,1.0250067E1,1.2361014E1,3.7730316E1,4.665797E0,1.6058054E2,1.6146296E1,1.1071964E1,2.100102E1,5.6850146E2,1.0325441E1,4.202149E0,1.6885175E0,4.955758E1,6.1248064E0,4.3523192E0,1.0885464E0,6.878684E1,4.80347E0,2.4027698E0,7.3542695E0,6.2650795E0,1.4685558E0,4.090794E0,1.9050287E1,8.076876E1,3.4221936E2,6.1274147E1,6.33556E1,7.44792E1,5.0698315E1,1.10394684E2,3.9013278E0,4.857662E0,1.1326286E0,2.2870047E1,2.390351E0,1.2617417E1,1.3431137E0,3.077594E2,3.2010963E1,7.360283E2,1.3580928E2,3.0960485E1,5.7176792E1,4.955582E1,1.48964815E1,4.1736572E1,1.8457031E1,3.9699874E0,8.936707E0,3.6871939E0,1.4191043E1,5.6445892E1,3.9546244E0,7.8100533E0,6.8049436E0],"tree_param":{"num_deleted":"0","num_feature":"387","num_nodes":"127","size_leaf_vector":"1"}},{"base_weights":[8.4372945E-3,-5.545038E-1,2.4746107E-1,3.9669174E-1,-7.683422E-1,-1.19034655E-1,6.032556E-1,-6.0805714E-1,8.442569E-1,-8.7751997E-1,8.703731E-3,-4.6361876E-1,3.6849427E-1,-2.3389054E-2,7.836155E-1,4.9661168E-1,-1.0201758E0,9.804144E-1,-6.0244024E-1,-9.393707E-1,2.1734782E-1,-4.9382907E-1,6.839955E-1,-1.5470938E-1,-8.3537275E-1,-5.8383435E-1,5.5645394E-1,-4.6794274E-1,5.613512E-1,2.0916276E-1,8.8987774E-1,8.139656E-1,-2.9247156E-1,-1.0837138E0,1.2645476E-1,1.0115631E0,-1.7864415E-1,-9.5231634E-1,2.1560813E-1,-9.805415E-1,1.7504244E-1,-3.8176984E-1,1.1039236E0,-2.1667592E-3,-1.0928404E0,8.47709E-1,-8.946993E-1,-5.1099014E-1,2.5016508E-1,6.8548024E-1,-8.5568285E-1,2.6321396E-1,-8.816307E-1,7.496349E-1,-1.1814094E-1,-9.0836924E-1,3.6853034E-2,-7.6624356E-2,8.8396806E-1,-4.628415E-1,6.399703E-1,9.3629724E-1,-1.8913911E-1,-6.463283E-2,2.9082972E-1,-3.3668354E-1,4.2283606E-2,3.1343073E-1,-1.5429223E-1,-3.6141503E-1,4.154142E-2,-3.0145597E-1,1.4162971E-1,-2.9315826E-1,2.2032788E-1,-3.0232385E-1,1.3612193E-1,-3.2605577E-2,3.6276835E-1,1.6623048E-1,-2.3615201E-1,-4.1511914E-1,-2.8344756E-2,-1.7180103E-1,2.8696114E-1,1.5490782E-1,-4.6542823E-1,2.0850246E-1,-1.9292587E-1,-2.3442933E-1,1.3023773E-1,-2.7248242E-1,1.2457324E-1,2.1810782E-1,-1.8503888E-1,-2.985328E-2,-3.1280714E-1,-8.259373E-2,2.5442418E-1,-1.2415061E-1,2.3972271E-1,-3.1519082E-1,-2.3468934E-2,-9.577115E-2,2.5662497E-1,1.7672879E-1,-1.6447932E-1,3.05311E-1,-1.0355923E-1,2.0533627E-1,-2.0959124E-1,-2.3054156E-1,2.4236143E-1,-4.4256225E-2,2.9108977E-1,-2.4012442E-1,2.4409677E-1],"categories":[],"categories_nodes":[],"categories_segments":[],"categories_sizes":[],"default_left":[0,0,0,0,0,0,0,0,0,0,0,0,0,0,0,0,0,0,0,0,0,0,0,0,0,0,0,0,0,0,0,0,0,0,0,0,0,0,0,0,0,0,0,0,0,0,0,0,0,0,0,0,0,0,0,0,0,0,0,0,0,0,0,0,0,0,0,0,0,0,0,0,0,0,0,0,0,0,0,0,0,0,0,0,0,0,0,0,0,0,0,0,0,0,0,0,0,0,0,0,0,0,0,0,0,0,0,0,0,0,0,0,0,0,0,0,0],"id":8,"left_children":[1,3,5,7,9,11,13,15,17,19,21,23,25,27,29,31,33,35,37,39,41,43,45,47,49,51,53,55,57,59,61,63,-1,65,-1,67,-1,69,-1,71,73,75,77,79,81,83,85,87,89,-1,91,93,95,97,99,101,103,105,107,109,111,113,115,-1,-1,-1,-1,-1,-1,-1,-1,-1,-1,-1,-1,-1,-1,-1,-1,-1,-1,-1,-1,-1,-1,-1,-1,-1,-1,-1,-1,-1,-1,-1,-1,-1,-1,-1,-1,-1,-1,-1,-1,-1,-1,-1,-1,-1,-1,-1,-1,-1,-1,-1,-1,-1,-1],"loss_changes":[4.0592862E2,1.8319443E2,2.762036E2,7.5025406E1,6.23161E1,1.7555042E2,1.214783E2,2.4018057E1,2.3253372E1,4.3813843E1,3.1379076E1,7.0162186E1,7.780801E1,6.294938E1,5.075464E1,7.6604986E0,3.9321861E0,5.782776E0,5.5453463E0,2.8147217E1,1.9143127E1,1.5613981E1,1.0953539E1,4.852759E1,1.9545334E1,1.8353527E1,4.7267677E1,3.061269E1,2.1598309E1,3.8388542E1,3.5435364E1,2.231904E0,0E0,1.8876114E0,0E0,5.7997513E0,0E0,2.5742822E0,0E0,2.1246216E1,1.5266385E1,1.1846381E1,1.9791927E0,1.3590443E1,6.810362E0,6.1517735E0,4.6865225E0,2.8931755E1,3.0271317E1,0E0,1.8858093E1,8.390004E0,6.6207695E0,2.8644455E1,2.2423162E1,8.597504E0,1.9233723E1,1.1642914E1,1.1784931E1,1.4540331E1,1.9680386E1,2.502069E1,1.8958801E1,0E0,0E0,0E0,0E0,0E0,0E0,0E0,0E0,0E0,0E0,0E0,0E0,0E0,0E0,0E0,0E0,0E0,0E0,0E0,0E0,0E0,0E0,0E0,0E0,0E0,0E0,0E0,0E0,0E0,0E0,0E0,0E0,0E0,0E0,0E0,0E0,0E0,0E0,0E0,0E0,0E0,0E0,0E0,0E0,0E0,0E0,0E0,0E0,0E0,0E0,0E0,0E0,0E0,0E0],"parents":[2147483647,0,0,1,1,2,2,3,3,4,4,5,5,6,6,7,7,8,8,9,9,10,10,11,11,12,12,13,13,14,14,15,15,16,16,17,17,18,18,19,19,20,20,21,21,22,22,23,23,24,24,25,25,26,26,27,27,28,28,29,29,30,30,31,31,33,33,35,35,37,37,39,39,40,40,41,41,42,42,43,43,44,44,45,45,46,46,47,47,48,48,50,50,51,51,52,52,53,53,54,54,55,55,56,56,57,57,58,58,59,59,60,60,61,61,62,62],"right_children":[2,4,6,8,10,12,14,16,18,20,22,24,26,28,30,32,34,36,38,40,42,44,46,48,50,52,54,56,58,60,62,64,-1,66,-1,68,-1,70,-1,72,74,76,78,80,82,84,86,88,90,-1,92,94,96,98,100,102,104,106,108,110,112,114,116,-1,-1,-1,-1,-1,-1,-1,-1,-1,-1,-1,-1,-1,-1,-1,-1,-1,-1,-1,-1,-1,-1,-1,-1,-1,-1,-1,-1,-1,-1,-1,-1,-1,-1,-1,-1,-1,-1,-1,-1,-1,-1,-1,-1,-1,-1,-1,-1,-1,-1,-1,-1,-1,-1],"split_conditions":[-1.0530359E-2,-6.350674E-2,2.161494E-2,-4.652203E-8,-3.923217E-8,1.9977828E-3,-4.6351776E-2,-4.4845518E-2,1.1729157E-2,1.383131E-32,4.553525E-2,2.8273026E-3,-2.052214E-2,2.6037646E-3,-3.2989074E-2,4.184107E-3,4.2568058E-2,3.0760136E-2,6.799885E-2,8.8662215E-2,3.6357805E-2,1.5598755E-2,5.3974252E-2,-2.2342604E-2,-1.4719497E-1,-4.456477E-2,7.382626E-3,-2.7063603E-2,2.757896E-2,-1.3898272E-3,6.6674694E-2,-4.070139E-3,-2.9247156E-1,7.0828505E-2,1.2645476E-1,1.4421526E-2,-1.7864415E-1,2.5110038E-2,2.1560813E-1,1.285875E-1,4.7586024E-2,-3.1703252E-2,-3.730246E-2,-1.1428937E-2,5.5297624E-2,-2.1963347E-2,-2.8462373E-2,-9.598308E-2,-3.1476825E-2,6.8548024E-1,-3.430464E-8,3.9335016E-2,-4.031807E-2,-3.2080702E-2,4.6224624E-2,4.0632438E-2,1.8838199E-2,-2.0167414E-2,8.363136E-3,-6.1380453E-2,-3.591934E-2,-6.765272E-2,6.397128E-2,-6.463283E-2,2.9082972E-1,-3.3668354E-1,4.2283606E-2,3.1343073E-1,-1.5429223E-1,-3.6141503E-1,4.154142E-2,-3.0145597E-1,1.4162971E-1,-2.9315826E-1,2.2032788E-1,-3.0232385E-1,1.3612193E-1,-3.2605577E-2,3.6276835E-1,1.6623048E-1,-2.3615201E-1,-4.1511914E-1,-2.8344756E-2,-1.7180103E-1,2.8696114E-1,1.5490782E-1,-4.6542823E-1,2.0850246E-1,-1.9292587E-1,-2.3442933E-1,1.3023773E-1,-2.7248242E-1,1.2457324E-1,2.1810782E-1,-1.8503888E-1,-2.985328E-2,-3.1280714E-1,-8.259373E-2,2.5442418E-1,-1.2415061E-1,2.3972271E-1,-3.1519082E-1,-2.3468934E-2,-9.577115E-2,2.5662497E-1,1.7672879E-1,-1.6447932E-1,3.05311E-1,-1.0355923E-1,2.0533627E-1,-2.0959124E-1,-2.3054156E-1,2.4236143E-1,-4.4256225E-2,2.9108977E-1,-2.4012442E-1,2.4409677E-1],"split_indices":[240,96,345,319,319,17,297,33,312,127,141,94,200,226,5,237,28,284,185,304,382,267,351,297,182,41,162,17,313,309,196,372,0,48,0,98,0,133,0,212,73,122,304,182,313,227,218,14,233,0,319,317,87,229,228,61,70,36,195,381,47,234,212,0,0,0,0,0,0,0,0,0,0,0,0,0,0,0,0,0,0,0,0,0,0,0,0,0,0,0,0,0,0,0,0,0,0,0,0,0,0,0,0,0,0,0,0,0,0,0,0,0,0,0,0,0,0],"split_type":[0,0,0,0,0,0,0,0,0,0,0,0,0,0,0,0,0,0,0,0,0,0,0,0,0,0,0,0,0,0,0,0,0,0,0,0,0,0,0,0,0,0,0,0,0,0,0,0,0,0,0,0,0,0,0,0,0,0,0,0,0,0,0,0,0,0,0,0,0,0,0,0,0,0,0,0,0,0,0,0,0,0,0,0,0,0,0,0,0,0,0,0,0,0,0,0,0,0,0,0,0,0,0,0,0,0,0,0,0,0,0,0,0,0,0,0,0],"sum_hessian":[3.014774E3,8.98153E2,2.1166208E3,1.6469627E2,7.334567E2,1.0429587E3,1.0736621E3,5.0644566E1,1.140517E2,6.429856E2,9.047112E1,6.1109064E2,4.3186813E2,2.401505E2,8.3351166E2,1.3704672E1,3.6939896E1,1.0453553E2,9.516169E0,6.08739E2,3.4246574E1,5.2024612E1,3.844651E1,3.3452933E2,2.7656134E2,7.083991E1,3.6102823E2,1.3654259E2,1.0360791E2,1.3057771E2,7.029339E2,1.1640979E1,2.0636933E0,3.5618427E1,1.3214663E0,1.0286053E2,1.6750073E0,7.744389E0,1.7717798E0,5.871669E2,2.1572147E1,2.077615E1,1.3470425E1,2.9123753E1,2.2900858E1,3.5253674E1,3.1928387E0,1.7780376E2,1.5672556E2,1.0674244E0,2.754939E2,1.8457047E1,5.2382866E1,2.80571E2,8.045719E1,7.249358E1,6.4049E1,3.5053005E1,6.85549E1,5.098044E1,7.9597275E1,6.740677E2,2.886626E1,1.4767877E0,1.0164191E1,3.461209E1,1.006339E0,1.0097833E2,1.8821934E0,6.20431E0,1.540079E0,5.778049E2,9.362017E0,6.8060064E0,1.476614E1,1.1759563E1,9.016586E0,1.0737523E0,1.2396673E1,1.7217382E1,1.1906371E1,1.743488E1,5.46598E0,2.2055538E0,3.304812E1,1.0819277E0,2.110911E0,1.7132023E1,1.6067174E2,2.322711E1,1.3349844E2,2.648208E2,1.06731205E1,1.2200551E1,6.256495E0,9.221296E0,4.3161568E1,2.4429686E1,2.5614133E2,6.125763E1,1.9199562E1,6.1660736E1,1.0832849E1,4.5057964E1,1.8991041E1,1.4432493E1,2.0620514E1,6.198308E1,6.5718236E0,8.366996E0,4.2613445E1,8.0971575E0,7.1500114E1,2.040233E1,6.5366534E2,1.805951E1,1.0806751E1],"tree_param":{"num_deleted":"0","num_feature":"387","num_nodes":"117","size_leaf_vector":"1"}},{"base_weights":[7.5288005E-3,-2.949641E-1,3.8582122E-1,-4.6463418E-1,4.0269405E-1,3.7609298E-2,7.592188E-1,-6.598188E-1,1.591168E-1,-4.814706E-1,6.3575447E-1,3.6617827E-1,-5.913847E-1,8.367141E-1,-2.6962686E-2,-8.4801024E-1,-2.343717E-1,-3.7107632E-1,6.8747896E-1,8.81413E-1,-7.935698E-1,7.767003E-1,-3.4742796E-1,-4.73891E-1,6.25908E-1,-7.7356684E-1,6.43309E-1,9.3728596E-1,3.9618206E-1,5.644708E-1,-7.303844E-1,-3.396385E-1,-9.761529E-1,-5.0706506E-1,3.6043265E-1,3.269807E-1,-7.2438294E-1,8.343632E-1,-5.678327E-1,-5.4141414E-1,1.3494986E0,5.2417564E-1,-9.09666E-1,1.9471511E-1,9.223421E-1,-1.0550576E0,2.0127672E-1,-9.800401E-1,1.5741095E-2,7.7972907E-1,-4.6577886E-1,-4.6043533E-1,-1.1412234E0,-1.7902988E-1,1.038917E0,-3.2460448E-1,9.592771E-1,8.0635715E-1,-3.906805E-1,8.043159E-1,-5.7092327E-1,-1.0846617E0,5.199022E-1,-1.9991463E-1,1.6213799E-1,-3.0147788E-1,1.20183416E-1,1.7758982E-1,-1.9330986E-1,2.5083062E-1,-1.1645498E-1,2.2270164E-1,-1.810914E-1,-2.4998137E-1,2.8122342E-1,2.8092444E-1,-6.0730275E-2,2.8592047E-1,-2.5194806E-1,-2.9902118E-1,7.5075045E-2,2.2494195E-2,4.5022985E-1,-1.0409098E-1,2.6103806E-1,-2.9735157E-1,1.7142548E-1,-2.591698E-1,1.8839625E-1,2.9532924E-1,2.9671898E-2,-3.4567308E-1,-3.28448E-2,-2.3150668E-1,1.8955079E-1,-3.2857326E-1,1.9441584E-1,2.041306E-1,-1.4369671E-1,-5.5604603E-2,2.73563E-1,-2.3306745E-1,2.47428E-1,7.87993E-2,-2.201372E-1,-3.5650787E-1,2.0438954E-1,-2.4199162E-1,1.8836127E-1,3.3328938E-1,-2.9322779E-2,2.0038483E-1,-3.835341E-1,2.9711035E-1,3.169181E-2,2.9501303E-3,2.941077E-1,1.2281463E-1,-2.535169E-1,-4.337875E-2,3.1757468E-1,1.2104655E-1,-3.3175576E-1,-3.2167335E-3,-4.029684E-1,-1.575575E-1,3.0508262E-1],"categories":[],"categories_nodes":[],"categories_segments":[],"categories_sizes":[],"default_left":[0,0,0,0,0,0,0,0,0,0,0,0,0,0,0,0,0,0,0,0,0,0,0,0,0,0,0,0,0,0,0,0,0,0,0,0,0,0,0,0,0,0,0,0,0,0,0,0,0,0,0,0,0,0,0,0,0,0,0,0,0,0,0,0,0,0,0,0,0,0,0,0,0,0,0,0,0,0,0,0,0,0,0,0,0,0,0,0,0,0,0,0,0,0,0,0,0,0,0,0,0,0,0,0,0,0,0,0,0,0,0,0,0,0,0,0,0,0,0,0,0,0,0,0,0,0,0],"id":9,"left_children":[1,3,5,7,9,11,13,15,17,19,21,23,25,27,29,31,33,35,37,39,41,43,45,47,49,51,53,55,57,59,61,63,65,67,69,71,73,75,77,79,81,83,85,87,89,91,93,95,97,99,101,103,105,107,109,111,113,115,117,119,121,123,125,-1,-1,-1,-1,-1,-1,-1,-1,-1,-1,-1,-1,-1,-1,-1,-1,-1,-1,-1,-1,-1,-1,-1,-1,-1,-1,-1,-1,-1,-1,-1,-1,-1,-1,-1,-1,-1,-1,-1,-1,-1,-1,-1,-1,-1,-1,-1,-1,-1,-1,-1,-1,-1,-1,-1,-1,-1,-1,-1,-1,-1,-1,-1,-1],"loss_changes":[2.9740533E2,1.7113959E2,1.5012059E2,1.4159221E2,5.863365E1,1.2392916E2,3.396994E1,7.068756E1,7.8073715E1,2.6057556E1,3.137165E1,8.622534E1,4.6786118E1,2.2101654E1,2.161488E1,3.9631195E1,4.4447475E1,3.459328E1,2.6193E1,8.444358E0,7.978348E0,1.6485153E1,1.140712E1,2.3205795E1,5.095018E1,2.0171303E1,8.971521E0,1.1750732E1,3.1301905E1,8.152256E0,1.1068113E1,3.631549E1,1.9790466E1,2.867986E1,3.1080467E1,1.880943E1,1.7573772E1,1.3445E1,7.0910325E0,1.5401648E0,1.6228638E0,1.689633E0,6.050495E0,1.9173908E1,7.9287567E0,1.0457563E0,7.6423974E0,9.342773E0,1.6290554E1,3.389096E1,1.582978E1,1.9714735E1,7.855072E0,5.3806386E0,1.6138477E0,8.246074E0,1.0655212E1,8.782482E0,1.255026E1,5.880583E0,3.319154E0,5.2067165E0,3.6050673E0,0E0,0E0,0E0,0E0,0E0,0E0,0E0,0E0,0E0,0E0,0E0,0E0,0E0,0E0,0E0,0E0,0E0,0E0,0E0,0E0,0E0,0E0,0E0,0E0,0E0,0E0,0E0,0E0,0E0,0E0,0E0,0E0,0E0,0E0,0E0,0E0,0E0,0E0,0E0,0E0,0E0,0E0,0E0,0E0,0E0,0E0,0E0,0E0,0E0,0E0,0E0,0E0,0E0,0E0,0E0,0E0,0E0,0E0,0E0,0E0,0E0,0E0,0E0,0E0],"parents":[2147483647,0,0,1,1,2,2,3,3,4,4,5,5,6,6,7,7,8,8,9,9,10,10,11,11,12,12,13,13,14,14,15,15,16,16,17,17,18,18,19,19,20,20,21,21,22,22,23,23,24,24,25,25,26,26,27,27,28,28,29,29,30,30,31,31,32,32,33,33,34,34,35,35,36,36,37,37,38,38,39,39,40,40,41,41,42,42,43,43,44,44,45,45,46,46,47,47,48,48,49,49,50,50,51,51,52,52,53,53,54,54,55,55,56,56,57,57,58,58,59,59,60,60,61,61,62,62],"right_children":[2,4,6,8,10,12,14,16,18,20,22,24,26,28,30,32,34,36,38,40,42,44,46,48,50,52,54,56,58,60,62,64,66,68,70,72,74,76,78,80,82,84,86,88,90,92,94,96,98,100,102,104,106,108,110,112,114,116,118,120,122,124,126,-1,-1,-1,-1,-1,-1,-1,-1,-1,-1,-1,-1,-1,-1,-1,-1,-1,-1,-1,-1,-1,-1,-1,-1,-1,-1,-1,-1,-1,-1,-1,-1,-1,-1,-1,-1,-1,-1,-1,-1,-1,-1,-1,-1,-1,-1,-1,-1,-1,-1,-1,-1,-1,-1,-1,-1,-1,-1,-1,-1,-1,-1,-1,-1],"split_conditions":[2.0236658E-2,5.6090806E-2,-4.8107633E-8,4.993277E-2,-1.8488044E-2,1.2230321E-3,4.1421074E-2,3.7743866E-2,2.4622498E-2,-5.315395E-2,2.8702222E-2,-2.2217585E-2,1.452333E-32,2.2546077E-2,-3.0507846E-2,-2.022891E-3,4.658527E-2,-9.48627E-3,2.52134E-2,-1.3119695E-2,-8.758846E-2,-4.9205136E-4,-1.386918E-2,6.5841525E-33,3.4217343E-3,4.788488E-2,-2.1901333E-3,-8.250423E-2,-5.5361586E-3,-3.203443E-3,2.9925687E-2,2.9580722E-2,1.5183581E-32,-5.7349678E-2,-1.6870221E-2,3.6548648E-2,8.645862E-2,2.1412259E-2,-2.382861E-2,-2.3002848E-2,-6.975605E-4,1.944957E-2,1.0830165E-32,8.4580025E-3,3.826089E-2,2.5633054E-2,-1.8117817E-2,7.5657055E-2,-5.2140854E-2,-3.5829183E-2,6.537823E-2,-2.4858247E-2,1.0452139E-1,4.173268E-2,9.075478E-3,-8.911838E-3,4.165336E-2,3.1749553E-3,-2.3223257E-2,-4.5108754E-2,-2.8447634E-2,-4.6218716E-2,-1.0492239E-2,-1.9991463E-1,1.6213799E-1,-3.0147788E-1,1.20183416E-1,1.7758982E-1,-1.9330986E-1,2.5083062E-1,-1.1645498E-1,2.2270164E-1,-1.810914E-1,-2.4998137E-1,2.8122342E-1,2.8092444E-1,-6.0730275E-2,2.8592047E-1,-2.5194806E-1,-2.9902118E-1,7.5075045E-2,2.2494195E-2,4.5022985E-1,-1.0409098E-1,2.6103806E-1,-2.9735157E-1,1.7142548E-1,-2.591698E-1,1.8839625E-1,2.9532924E-1,2.9671898E-2,-3.4567308E-1,-3.28448E-2,-2.3150668E-1,1.8955079E-1,-3.2857326E-1,1.9441584E-1,2.041306E-1,-1.4369671E-1,-5.5604603E-2,2.73563E-1,-2.3306745E-1,2.47428E-1,7.87993E-2,-2.201372E-1,-3.5650787E-1,2.0438954E-1,-2.4199162E-1,1.8836127E-1,3.3328938E-1,-2.9322779E-2,2.0038483E-1,-3.835341E-1,2.9711035E-1,3.169181E-2,2.9501303E-3,2.941077E-1,1.2281463E-1,-2.535169E-1,-4.337875E-2,3.1757468E-1,1.2104655E-1,-3.3175576E-1,-3.2167335E-3,-4.029684E-1,-1.575575E-1,3.0508262E-1],"split_indices":[228,304,319,173,211,358,140,200,78,95,15,226,127,92,41,264,7,4,161,71,254,313,212,127,98,317,294,133,196,98,295,1,127,95,281,12,119,72,383,108,363,74,127,346,89,350,131,133,77,234,227,87,240,157,207,94,286,240,96,353,8,381,293,0,0,0,0,0,0,0,0,0,0,0,0,0,0,0,0,0,0,0,0,0,0,0,0,0,0,0,0,0,0,0,0,0,0,0,0,0,0,0,0,0,0,0,0,0,0,0,0,0,0,0,0,0,0,0,0,0,0,0,0,0,0,0,0],"split_type":[0,0,0,0,0,0,0,0,0,0,0,0,0,0,0,0,0,0,0,0,0,0,0,0,0,0,0,0,0,0,0,0,0,0,0,0,0,0,0,0,0,0,0,0,0,0,0,0,0,0,0,0,0,0,0,0,0,0,0,0,0,0,0,0,0,0,0,0,0,0,0,0,0,0,0,0,0,0,0,0,0,0,0,0,0,0,0,0,0,0,0,0,0,0,0,0,0,0,0,0,0,0,0,0,0,0,0,0,0,0,0,0,0,0,0,0,0,0,0,0,0,0,0,0,0,0,0],"sum_hessian":[2.5970032E3,1.4432008E3,1.1538022E3,1.161145E3,2.8205582E2,5.976057E2,5.5619653E2,8.843543E2,2.7679068E2,5.861633E1,2.2343947E2,3.928235E2,2.0478223E2,5.062321E2,4.996446E1,6.1245087E2,2.719034E2,1.3830455E2,1.3848615E2,1.0582076E1,4.8034252E1,1.9560779E2,2.7831688E1,9.2574905E1,3.002486E2,1.7877676E2,2.6005476E1,4.112236E2,9.50085E1,2.7250177E1,2.271428E1,1.2403313E2,4.8841776E2,1.8653316E2,8.537026E1,4.650174E1,9.180281E1,1.2427951E2,1.4206635E1,2.5807586E0,8.001317E0,3.6046634E0,4.442959E1,3.9620617E1,1.5598717E2,1.1752463E1,1.6079224E1,4.50272E1,4.7547703E1,2.6341815E2,3.6830437E1,9.776396E1,8.1012794E1,8.624804E0,1.7380672E1,6.807989E0,4.0441562E2,6.2436752E1,3.257175E1,2.2738422E1,4.5117564E0,1.7802336E1,4.9119434E0,9.0629166E1,3.3403965E1,4.786837E2,9.734056E0,2.0347725E1,1.6618544E2,5.213005E1,3.3240215E1,3.2291542E1,1.4210195E1,8.66253E1,5.177508E0,1.1323104E2,1.104847E1,1.7753669E0,1.2431269E1,1.4739696E0,1.106789E0,1.0075765E0,6.993741E0,1.0237633E0,2.5809002E0,4.2425636E1,2.0039535E0,1.1217937E1,2.840268E1,1.448683E2,1.1118865E1,1.0458934E1,1.2935296E0,4.6895704E0,1.1389654E1,4.2357277E1,2.6699228E0,2.012859E1,2.7419115E1,3.1677052E1,2.317411E2,2.9997011E1,6.8334255E0,2.6830103E1,7.093386E1,7.930956E1,1.7032331E0,4.851569E0,3.7732344E0,1.636592E1,1.0147542E0,3.4831767E0,3.3248124E0,3.900493E2,1.4366319E1,1.1383474E1,5.1053276E1,1.183383E1,2.0737923E1,4.896436E0,1.7841986E1,1.6861075E0,2.825649E0,3.6565502E0,1.4145784E1,1.5648965E0,3.347047E0],"tree_param":{"num_deleted":"0","num_feature":"387","num_nodes":"127","size_leaf_vector":"1"}},{"base_weights":[8.04817E-3,-3.254868E-1,3.0377662E-1,5.699765E-1,-5.198198E-1,-1.912534E-1,5.026188E-1,8.432187E-1,-4.6746486E-1,-7.748248E-1,-1.0201222E-1,1.0955527E-1,-6.9293666E-1,-1.4130367E-1,6.284972E-1,-9.7816986E-1,8.9817005E-1,-8.412057E-1,3.5174292E-1,1.4254998E-1,-8.611019E-1,4.0100867E-1,-4.830917E-1,-4.297345E-1,4.885538E-1,-2.4800427E-1,-9.512767E-1,3.456149E-1,-5.7138455E-1,2.4918844E-1,7.9037386E-1,6.958682E-2,-4.081955E-1,9.899947E-1,-4.5590833E-2,2.2809507E-1,-1.026962E0,-4.2513812E-1,8.7614846E-1,6.20305E-1,-5.2731764E-1,-8.963522E-1,6.0086364E-1,-3.647725E-1,6.334838E-1,-7.342541E-1,7.63903E-2,-6.650402E-1,1.0305966E0,6.7367655E-1,-6.4220446E-1,-4.303479E-1,7.3038584E-1,5.75508E-1,-1.0240914E0,-5.764652E-1,6.66012E-1,-7.784188E-1,3.3056164E-1,-3.8975346E-1,5.3748643E-1,-4.8270994E-1,8.25147E-1,3.0667388E-1,-9.069447E-2,-2.1011408E-1,1.5994458E-1,4.0662084E-2,-3.273461E-1,-2.2141176E-1,1.5554178E-1,2.8831723E-1,4.2218097E-2,2.656668E-1,-1.6230565E-1,-2.3504512E-1,1.5279739E-1,-2.7771735E-1,1.24659404E-1,-1.8208174E-1,3.6337993E-1,-2.1011107E-1,2.0870335E-1,2.3747265E-1,-6.75704E-2,-2.7380726E-1,-6.9080606E-2,-1.1427742E-1,2.108064E-1,1.12551406E-1,-2.580779E-1,7.936402E-2,3.2322603E-1,2.944847E-1,4.3916084E-2,3.8895682E-1,-2.6732242E-1,5.6141313E-2,-2.233571E-1,-1.2678927E-1,3.3310473E-1,3.9725855E-1,-1.7744103E-1,-3.1899467E-1,2.0588455E-1,1.0396426E-1,-2.594456E-1,2.905711E-1,-3.1908903E-2,-2.903086E-1,7.083972E-3,-2.3140885E-1,3.412229E-1,1.643145E-1,-1.8444599E-1,-9.164986E-2,2.1661463E-1,-3.7069574E-1,1.8905878E-1,2.7367103E-1,9.339375E-2],"categories":[],"categories_nodes":[],"categories_segments":[],"categories_sizes":[],"default_left":[0,0,0,0,0,0,0,0,0,0,0,0,0,0,0,0,0,0,0,0,0,0,0,0,0,0,0,0,0,0,0,0,0,0,0,0,0,0,0,0,0,0,0,0,0,0,0,0,0,0,0,0,0,0,0,0,0,0,0,0,0,0,0,0,0,0,0,0,0,0,0,0,0,0,0,0,0,0,0,0,0,0,0,0,0,0,0,0,0,0,0,0,0,0,0,0,0,0,0,0,0,0,0,0,0,0,0,0,0,0,0,0,0,0,0,0,0,0,0,0,0],"id":10,"left_children":[1,3,5,7,9,11,13,15,17,19,21,23,25,27,29,31,33,35,37,39,41,43,45,47,49,51,53,55,57,59,61,-1,-1,63,65,-1,67,69,71,73,75,77,79,81,83,85,87,89,91,93,95,97,99,101,103,105,107,109,111,113,115,117,119,-1,-1,-1,-1,-1,-1,-1,-1,-1,-1,-1,-1,-1,-1,-1,-1,-1,-1,-1,-1,-1,-1,-1,-1,-1,-1,-1,-1,-1,-1,-1,-1,-1,-1,-1,-1,-1,-1,-1,-1,-1,-1,-1,-1,-1,-1,-1,-1,-1,-1,-1,-1,-1,-1,-1,-1,-1,-1],"loss_changes":[2.2065192E2,1.8324652E2,1.16808525E2,5.3673008E1,9.201448E1,5.1462624E1,6.867793E1,1.5804092E1,1.2489455E1,4.259503E1,6.321456E1,4.389547E1,1.4450996E1,2.9345207E1,4.3275635E1,2.5585928E0,1.2635056E1,9.004612E0,5.742957E0,1.5364526E1,2.5822998E1,2.5556059E1,2.6404812E1,3.1180588E1,2.6806074E1,8.929301E0,9.537109E0,1.985376E1,1.4128624E1,3.948883E1,2.2345642E1,0E0,0E0,5.829056E0,5.6172447E0,0E0,2.0280914E0,2.1499486E0,3.7658453E-1,9.069144E0,5.736989E0,1.8860382E1,9.692694E0,1.2503015E1,1.5042503E1,1.1436264E1,1.7166561E1,1.5966854E1,1.7078209E-1,1.7514957E1,9.954357E0,8.157829E0,3.95513E0,4.543592E0,5.907654E0,4.965487E0,1.1640818E1,9.239582E0,1.3831237E1,1.444778E1,2.3146915E1,1.2352877E1,2.1328308E1,0E0,0E0,0E0,0E0,0E0,0E0,0E0,0E0,0E0,0E0,0E0,0E0,0E0,0E0,0E0,0E0,0E0,0E0,0E0,0E0,0E0,0E0,0E0,0E0,0E0,0E0,0E0,0E0,0E0,0E0,0E0,0E0,0E0,0E0,0E0,0E0,0E0,0E0,0E0,0E0,0E0,0E0,0E0,0E0,0E0,0E0,0E0,0E0,0E0,0E0,0E0,0E0,0E0,0E0,0E0,0E0,0E0,0E0],"parents":[2147483647,0,0,1,1,2,2,3,3,4,4,5,5,6,6,7,7,8,8,9,9,10,10,11,11,12,12,13,13,14,14,15,15,16,16,17,17,18,18,19,19,20,20,21,21,22,22,23,23,24,24,25,25,26,26,27,27,28,28,29,29,30,30,33,33,34,34,36,36,37,37,38,38,39,39,40,40,41,41,42,42,43,43,44,44,45,45,46,46,47,47,48,48,49,49,50,50,51,51,52,52,53,53,54,54,55,55,56,56,57,57,58,58,59,59,60,60,61,61,62,62],"right_children":[2,4,6,8,10,12,14,16,18,20,22,24,26,28,30,32,34,36,38,40,42,44,46,48,50,52,54,56,58,60,62,-1,-1,64,66,-1,68,70,72,74,76,78,80,82,84,86,88,90,92,94,96,98,100,102,104,106,108,110,112,114,116,118,120,-1,-1,-1,-1,-1,-1,-1,-1,-1,-1,-1,-1,-1,-1,-1,-1,-1,-1,-1,-1,-1,-1,-1,-1,-1,-1,-1,-1,-1,-1,-1,-1,-1,-1,-1,-1,-1,-1,-1,-1,-1,-1,-1,-1,-1,-1,-1,-1,-1,-1,-1,-1,-1,-1,-1,-1,-1,-1],"split_conditions":[1.6451176E-2,-7.136676E-2,-4.16728E-2,-7.675988E-3,3.98838E-3,2.5530703E-2,-2.698416E-2,-6.83534E-2,3.4943946E-2,-1.0308462E-1,-1.8846886E-2,-7.861947E-4,-2.4732249E-2,4.161473E-3,-1.4561272E-2,-2.9420203E-2,-3.0650897E-2,-8.067603E-2,1.0528551E-2,-8.741245E-3,8.4150955E-2,-3.0060254E-2,3.5105187E-2,1.452333E-32,6.388656E-2,4.3664757E-2,-6.0456265E-2,-2.5564544E-2,2.6641548E-2,1.1156115E-2,-7.207503E-2,6.958682E-2,-4.081955E-1,6.984897E-2,8.73967E-3,2.2809507E-1,-5.2539155E-2,1.5286532E-2,-6.923373E-4,1.0812369E-2,2.6407873E-2,9.904188E-2,1.9203678E-2,4.480854E-2,1.881056E-2,6.4488593E-3,1.8838855E-2,-8.180107E-2,-4.352294E-2,-2.8442457E-2,-7.271575E-2,-2.375766E-2,-8.114738E-3,1.1365491E-2,1.0061813E-1,-4.729559E-2,2.489462E-2,5.4571275E-2,2.3212785E-2,-5.6416538E-2,-2.6669858E-2,5.4829064E-33,4.055047E-2,3.0667388E-1,-9.069447E-2,-2.1011408E-1,1.5994458E-1,4.0662084E-2,-3.273461E-1,-2.2141176E-1,1.5554178E-1,2.8831723E-1,4.2218097E-2,2.656668E-1,-1.6230565E-1,-2.3504512E-1,1.5279739E-1,-2.7771735E-1,1.24659404E-1,-1.8208174E-1,3.6337993E-1,-2.1011107E-1,2.0870335E-1,2.3747265E-1,-6.75704E-2,-2.7380726E-1,-6.9080606E-2,-1.1427742E-1,2.108064E-1,1.12551406E-1,-2.580779E-1,7.936402E-2,3.2322603E-1,2.944847E-1,4.3916084E-2,3.8895682E-1,-2.6732242E-1,5.6141313E-2,-2.233571E-1,-1.2678927E-1,3.3310473E-1,3.9725855E-1,-1.7744103E-1,-3.1899467E-1,2.0588455E-1,1.0396426E-1,-2.594456E-1,2.905711E-1,-3.1908903E-2,-2.903086E-1,7.083972E-3,-2.3140885E-1,3.412229E-1,1.643145E-1,-1.8444599E-1,-9.164986E-2,2.1661463E-1,-3.7069574E-1,1.8905878E-1,2.7367103E-1,9.339375E-2],"split_indices":[240,96,297,312,48,93,285,310,234,98,195,304,314,221,234,177,98,161,258,312,213,233,2,127,4,1,251,234,213,212,229,0,0,153,350,0,4,333,305,92,38,185,280,47,358,70,49,242,341,77,167,140,199,80,70,41,307,131,47,94,47,127,221,0,0,0,0,0,0,0,0,0,0,0,0,0,0,0,0,0,0,0,0,0,0,0,0,0,0,0,0,0,0,0,0,0,0,0,0,0,0,0,0,0,0,0,0,0,0,0,0,0,0,0,0,0,0,0,0,0,0],"split_type":[0,0,0,0,0,0,0,0,0,0,0,0,0,0,0,0,0,0,0,0,0,0,0,0,0,0,0,0,0,0,0,0,0,0,0,0,0,0,0,0,0,0,0,0,0,0,0,0,0,0,0,0,0,0,0,0,0,0,0,0,0,0,0,0,0,0,0,0,0,0,0,0,0,0,0,0,0,0,0,0,0,0,0,0,0,0,0,0,0,0,0,0,0,0,0,0,0,0,0,0,0,0,0,0,0,0,0,0,0,0,0,0,0,0,0,0,0,0,0,0,0],"sum_hessian":[2.235035E3,1.050329E3,1.1847058E3,1.8695047E2,8.6337854E2,3.3951077E2,8.4519507E2,1.4812453E2,3.882595E1,5.3561584E2,3.2776266E2,2.1273608E2,1.2677467E2,1.3818684E2,7.0700824E2,3.8460095E0,1.4427852E2,2.6643663E1,1.2182285E1,4.5987175E1,4.896287E2,1.4125511E2,1.8650755E2,8.774578E1,1.249903E2,4.728939E1,7.948528E1,6.490297E1,7.328388E1,2.1223634E2,4.9477188E2,1.0181757E0,2.8278337E0,1.314408E2,1.2837722E1,2.44767E0,2.4195993E1,4.985624E0,7.196662E0,2.6885914E1,1.9101263E1,4.784787E2,1.1149984E1,3.2763134E1,1.0849198E2,1.2850621E2,5.800134E1,7.603821E1,1.1707572E1,1.07753586E2,1.7236717E1,4.033269E1,6.9567E0,3.3039532E0,7.618133E1,1.6530405E1,4.8372562E1,5.9713985E1,1.3569894E1,6.5879234E1,1.463571E2,1.2812418E1,4.8195947E2,1.2844424E2,2.996548E0,5.924511E0,6.913211E0,1.207987E0,2.2988007E1,3.9076908E0,1.077933E0,6.176711E0,1.0199507E0,2.2080173E1,4.8057404E0,1.5512226E1,3.5890367E0,4.6828836E2,1.0190335E1,3.7451458E0,7.4048386E0,2.5145092E1,7.6180425E0,9.1689896E1,1.6802088E1,9.430608E1,3.420013E1,3.3749584E1,2.4251755E1,1.1869691E1,6.416852E1,1.0574336E0,1.0650138E1,6.748214E1,4.027145E1,1.4820154E0,1.5754702E1,1.3737387E1,2.6595304E1,1.6964494E0,5.2602506E0,1.9306213E0,1.3733319E0,7.484326E1,1.3380687E0,3.8868563E0,1.2643549E1,3.457476E1,1.3797801E1,4.8145325E1,1.1568663E1,5.754655E0,7.8152385E0,1.24766655E1,5.340257E1,2.6170132E1,1.2018697E2,7.5763226E0,5.236096E0,4.1144785E2,7.051162E1],"tree_param":{"num_deleted":"0","num_feature":"387","num_nodes":"121","size_leaf_vector":"1"}},{"base_weights":[8.2525E-3,3.5922185E-1,-2.2813803E-1,5.271405E-1,-2.7117485E-1,-5.599218E-1,1.8764777E-1,-1.8350083E-2,6.904422E-1,-5.9976554E-1,2.6017848E-1,-7.046218E-1,3.623375E-1,-1.902201E-1,6.111504E-1,-4.814993E-1,3.8763863E-1,-1.7026976E-2,7.795166E-1,-2.132308E-1,-9.3301225E-1,-4.259925E-1,6.51925E-1,2.6096746E-1,-7.834301E-1,5.366844E-1,-1.01673E0,1.05872676E-1,-7.501554E-1,7.6350465E-2,8.90794E-1,-7.20201E-1,4.8126706E-1,-5.9033126E-1,5.827994E-1,-6.068834E-1,5.6595206E-1,8.263496E-1,-4.4273266E-1,7.8938323E-1,-4.5234787E-1,3.785649E-1,-1.0070158E0,-6.3589525E-1,7.7117044E-1,1.0011415E0,-3.819783E-1,6.554904E-1,-9.838596E-1,-8.265769E-1,8.7026775E-1,6.84196E-1,-4.3822712E-1,1.9971678E-1,-1.3089365E0,-3.729E-1,5.110058E-1,2.958203E-1,-9.180322E-1,5.61735E-1,-3.999297E-1,-3.6426E-1,9.5005995E-1,-2.697925E-1,1.168585E-1,2.7836028E-1,-1.341315E-1,-2.9190758E-1,1.1954216E-1,-1.4113635E-1,2.2249262E-1,7.1775734E-2,-2.9332832E-1,-1.9832712E-2,2.94503E-1,-6.548819E-3,2.6502043E-1,9.936879E-2,-2.6699752E-1,3.2203844E-1,-1.9173846E-1,-6.629333E-3,-2.6780564E-1,-1.4373782E-1,3.1708837E-1,-3.2698244E-1,7.717723E-2,-2.7508488E-1,1.333199E-1,4.566375E-3,3.0522248E-1,6.658737E-1,2.2319825E-1,1.628234E-1,-2.5855294E-1,3.1458604E-1,-7.023836E-2,-3.3528912E-1,-1.5499331E-2,-2.857228E-1,-1.23465665E-1,3.5112894E-1,-1.5994295E-1,-3.1018147E-1,2.2786702E-1,6.98855E-2,-3.580222E-1,-4.6174917E-1,-1.3221584E-2,-2.1596044E-1,2.3264106E-2,-3.0902045E-2,2.3030892E-1,-1.1483899E-1,2.9732624E-1,1.253161E-1,-2.9166055E-1,2.858632E-1,-1.8277395E-3,8.171532E-2,-2.3444657E-1,2.1262707E-1,-2.2513625E-1,2.9411396E-1,-1.8329242E-1],"categories":[],"categories_nodes":[],"categories_segments":[],"categories_sizes":[],"default_left":[0,0,0,0,0,0,0,0,0,0,0,0,0,0,0,0,0,0,0,0,0,0,0,0,0,0,0,0,0,0,0,0,0,0,0,0,0,0,0,0,0,0,0,0,0,0,0,0,0,0,0,0,0,0,0,0,0,0,0,0,0,0,0,0,0,0,0,0,0,0,0,0,0,0,0,0,0,0,0,0,0,0,0,0,0,0,0,0,0,0,0,0,0,0,0,0,0,0,0,0,0,0,0,0,0,0,0,0,0,0,0,0,0,0,0,0,0,0,0,0,0,0,0,0,0],"id":11,"left_children":[1,3,5,7,9,11,13,15,17,19,21,23,25,27,29,31,33,35,37,39,41,43,45,47,49,51,53,55,57,59,61,63,65,67,69,71,73,75,77,79,81,83,85,87,89,91,93,95,97,99,101,103,105,-1,107,109,111,113,115,117,119,121,123,-1,-1,-1,-1,-1,-1,-1,-1,-1,-1,-1,-1,-1,-1,-1,-1,-1,-1,-1,-1,-1,-1,-1,-1,-1,-1,-1,-1,-1,-1,-1,-1,-1,-1,-1,-1,-1,-1,-1,-1,-1,-1,-1,-1,-1,-1,-1,-1,-1,-1,-1,-1,-1,-1,-1,-1,-1,-1,-1,-1,-1,-1],"loss_changes":[1.6209882E2,8.337952E1,1.6116156E2,5.5354843E1,2.9149158E1,8.694365E1,8.3154915E1,2.7284224E1,3.0145416E1,1.3056744E1,1.7521252E1,4.2957977E1,2.188609E1,4.5670387E1,3.6559563E1,1.59193535E1,1.5106803E1,1.9067066E1,2.4676819E1,1.2090248E1,5.716385E0,6.500776E0,1.526894E1,2.1833977E1,3.7799957E1,1.1725599E1,5.938608E0,3.5249664E1,1.699517E1,1.9917864E1,1.2301254E1,1.1222559E1,6.2451715E0,5.4449196E0,1.1220797E1,8.878667E0,7.3964176E0,1.9829376E1,5.9455814E0,4.65842E0,7.587302E0,2.6374905E0,5.764015E0,6.752678E0,7.328124E-1,8.09177E0,5.408337E0,1.1913368E1,1.2869081E0,2.6084656E1,6.3958006E0,9.771099E0,5.879371E0,0E0,2.5876808E0,1.3094063E1,1.5576221E1,6.9508963E0,6.3619385E0,9.468571E0,1.1392418E1,3.8347833E0,7.8763885E0,0E0,0E0,0E0,0E0,0E0,0E0,0E0,0E0,0E0,0E0,0E0,0E0,0E0,0E0,0E0,0E0,0E0,0E0,0E0,0E0,0E0,0E0,0E0,0E0,0E0,0E0,0E0,0E0,0E0,0E0,0E0,0E0,0E0,0E0,0E0,0E0,0E0,0E0,0E0,0E0,0E0,0E0,0E0,0E0,0E0,0E0,0E0,0E0,0E0,0E0,0E0,0E0,0E0,0E0,0E0,0E0,0E0,0E0,0E0,0E0,0E0,0E0],"parents":[2147483647,0,0,1,1,2,2,3,3,4,4,5,5,6,6,7,7,8,8,9,9,10,10,11,11,12,12,13,13,14,14,15,15,16,16,17,17,18,18,19,19,20,20,21,21,22,22,23,23,24,24,25,25,26,26,27,27,28,28,29,29,30,30,31,31,32,32,33,33,34,34,35,35,36,36,37,37,38,38,39,39,40,40,41,41,42,42,43,43,44,44,45,45,46,46,47,47,48,48,49,49,50,50,51,51,52,52,54,54,55,55,56,56,57,57,58,58,59,59,60,60,61,61,62,62],"right_children":[2,4,6,8,10,12,14,16,18,20,22,24,26,28,30,32,34,36,38,40,42,44,46,48,50,52,54,56,58,60,62,64,66,68,70,72,74,76,78,80,82,84,86,88,90,92,94,96,98,100,102,104,106,-1,108,110,112,114,116,118,120,122,124,-1,-1,-1,-1,-1,-1,-1,-1,-1,-1,-1,-1,-1,-1,-1,-1,-1,-1,-1,-1,-1,-1,-1,-1,-1,-1,-1,-1,-1,-1,-1,-1,-1,-1,-1,-1,-1,-1,-1,-1,-1,-1,-1,-1,-1,-1,-1,-1,-1,-1,-1,-1,-1,-1,-1,-1,-1,-1,-1,-1,-1,-1],"split_conditions":[-2.4274882E-2,6.7048892E-3,1.5597953E-4,-2.3110192E-2,1.3342738E-2,-3.5408924E-8,2.2454439E-2,-1.2595118E-2,-2.1924587E-2,-6.363591E-3,-4.770398E-3,-9.272102E-2,2.176477E-2,3.8164258E-2,3.045375E-2,5.5421535E-2,-3.3210315E-2,1.920103E-2,6.0257696E-2,-5.0899275E-2,-5.9265096E-2,4.722484E-2,1.8271768E-2,3.6395866E-2,9.2424594E-2,1.6401907E-2,-4.0250946E-2,-1.8330634E-2,-3.7994187E-2,-1.3139316E-2,-5.7332676E-2,1.1421231E-32,7.8232974E-2,4.096284E-2,-3.2012317E-2,-4.6753976E-2,8.207111E-4,-5.7855163E-2,-6.892137E-3,8.503403E-2,1.8741908E-2,2.8321506E-2,9.893171E-2,4.580476E-2,6.9194897E-3,-8.265869E-2,9.042217E-3,-6.583204E-3,5.9514817E-2,3.922132E-2,-1.7459331E-2,-9.260776E-2,1.5581376E-2,1.9971678E-1,3.2738507E-2,2.9747335E-3,-2.3514807E-2,6.302353E-2,-1.13168284E-1,1.5645444E-2,-1.3843841E-2,-1.13087045E-2,5.913246E-2,-2.697925E-1,1.168585E-1,2.7836028E-1,-1.341315E-1,-2.9190758E-1,1.1954216E-1,-1.4113635E-1,2.2249262E-1,7.1775734E-2,-2.9332832E-1,-1.9832712E-2,2.94503E-1,-6.548819E-3,2.6502043E-1,9.936879E-2,-2.6699752E-1,3.2203844E-1,-1.9173846E-1,-6.629333E-3,-2.6780564E-1,-1.4373782E-1,3.1708837E-1,-3.2698244E-1,7.717723E-2,-2.7508488E-1,1.333199E-1,4.566375E-3,3.0522248E-1,6.658737E-1,2.2319825E-1,1.628234E-1,-2.5855294E-1,3.1458604E-1,-7.023836E-2,-3.3528912E-1,-1.5499331E-2,-2.857228E-1,-1.23465665E-1,3.5112894E-1,-1.5994295E-1,-3.1018147E-1,2.2786702E-1,6.98855E-2,-3.580222E-1,-4.6174917E-1,-1.3221584E-2,-2.1596044E-1,2.3264106E-2,-3.0902045E-2,2.3030892E-1,-1.1483899E-1,2.9732624E-1,1.253161E-1,-2.9166055E-1,2.858632E-1,-1.8277395E-3,8.171532E-2,-2.3444657E-1,2.1262707E-1,-2.2513625E-1,2.9411396E-1,-1.8329242E-1],"split_indices":[195,161,70,47,233,319,309,17,337,269,47,77,286,4,362,233,287,362,358,162,221,332,178,117,213,284,301,17,264,94,287,127,176,232,333,94,100,133,189,257,140,58,200,300,68,332,265,265,363,126,101,7,221,0,210,212,212,240,18,4,80,317,140,0,0,0,0,0,0,0,0,0,0,0,0,0,0,0,0,0,0,0,0,0,0,0,0,0,0,0,0,0,0,0,0,0,0,0,0,0,0,0,0,0,0,0,0,0,0,0,0,0,0,0,0,0,0,0,0,0,0,0,0,0,0],"split_type":[0,0,0,0,0,0,0,0,0,0,0,0,0,0,0,0,0,0,0,0,0,0,0,0,0,0,0,0,0,0,0,0,0,0,0,0,0,0,0,0,0,0,0,0,0,0,0,0,0,0,0,0,0,0,0,0,0,0,0,0,0,0,0,0,0,0,0,0,0,0,0,0,0,0,0,0,0,0,0,0,0,0,0,0,0,0,0,0,0,0,0,0,0,0,0,0,0,0,0,0,0,0,0,0,0,0,0,0,0,0,0,0,0,0,0,0,0,0,0,0,0,0,0,0,0],"sum_hessian":[1.9518142E3,7.853236E2,1.1664906E3,6.2026697E2,1.650566E2,6.4858997E2,5.179007E2,1.4311047E2,4.7715652E2,1.01907745E2,6.314885E1,5.608328E2,8.775714E1,2.739876E2,2.4391309E2,6.676239E1,7.634808E1,5.3449028E1,4.237075E2,4.7940804E1,5.3966946E1,2.2918358E1,4.023049E1,4.2145008E1,5.186878E2,7.845003E1,9.307112E0,1.797481E2,9.423954E1,8.418597E1,1.5972711E2,5.370026E1,1.3062127E1,1.2364333E1,6.398375E1,2.654742E1,2.6901606E1,4.0838336E2,1.5324146E1,8.788696E0,3.9152107E1,2.6625528E0,5.1304394E1,1.9898342E1,3.0200143E0,3.0096598E1,1.0133895E1,3.236196E1,9.783045E0,5.0598624E2,1.2701569E1,6.839894E1,1.0051088E1,1.188095E0,8.119017E0,8.2422966E1,9.732512E1,1.2928006E1,8.131153E1,4.1605618E1,4.258035E1,6.9704413E0,1.5275668E2,4.6400898E1,7.2993627E0,8.819826E0,4.242301E0,8.925777E0,3.4385557E0,8.12785E0,5.58559E1,8.198322E0,1.8349098E1,1.1007283E1,1.5894321E1,2.5777102E1,3.8260626E2,5.7073145E0,9.616832E0,7.538177E0,1.2505199E0,2.0334057E1,1.881805E1,1.3056135E0,1.3569393E0,4.8275803E1,3.0285904E0,1.5910262E1,3.9880803E0,1.0029075E0,2.0171068E0,3.9149442E0,2.6181652E1,3.4173868E0,6.7165084E0,2.2319887E1,1.0042075E1,8.381387E0,1.4016583E0,3.872731E2,1.1871311E2,1.06003685E1,2.1011996E0,2.3395746E0,6.6059364E1,5.6876364E0,4.363452E0,6.6853127E0,1.4337039E0,4.6221546E1,3.6201424E1,2.8868761E1,6.845636E1,6.7697763E0,6.15823E0,2.9074008E0,7.840413E1,2.4234093E1,1.7371527E1,1.5519977E1,2.7060373E1,1.623741E0,5.3467E0,1.5021109E2,2.5455785E0],"tree_param":{"num_deleted":"0","num_feature":"387","num_nodes":"125","size_leaf_vector":"1"}},{"base_weights":[7.2625168E-3,-3.349106E-1,2.3660323E-1,-4.991864E-1,4.8865634E-1,-9.902819E-2,5.047502E-1,1.8459924E-1,-6.4311266E-1,-3.3570835E-1,6.826101E-1,-4.4098422E-1,2.0950642E-1,-6.380334E-2,6.6128504E-1,-4.9464598E-1,5.3853375E-1,-1.8333852E-1,-7.744014E-1,-7.6799566E-1,9.5051086E-1,7.883462E-1,-5.8812886E-1,2.2431363E-1,-6.16359E-1,-4.7037318E-1,4.9456072E-1,-6.0188967E-1,2.747397E-1,7.226416E-1,-3.6118868E-1,1.3575384E-1,-9.996452E-1,-6.100969E-1,7.67452E-1,-6.2437665E-1,2.862541E-1,-8.969978E-1,-4.082703E-1,-8.980493E-1,9.649516E-2,3.384037E-1,1.6767856E-2,8.67295E-1,-6.67107E-1,9.608082E-2,-7.9851556E-1,-7.1092075E-1,6.172269E-1,-8.12991E-1,-1.2804674E-1,-7.9746205E-1,9.600822E-2,-3.271094E-1,6.838094E-1,6.071817E-1,-7.346865E-1,5.40737E-1,-4.0505624E-1,7.626662E-1,-4.9761194E-1,1.491149E-1,-9.078872E-1,-1.4284647E-1,2.2289462E-1,-3.2569617E-1,2.1568213E-2,-2.894923E-1,9.732142E-2,2.77795E-1,-2.5500918E-2,1.958654E-1,-2.2940917E-1,-4.4625666E-2,2.3800772E-1,-2.9693472E-1,-1.6623075E-1,8.9258894E-2,-1.844554E-1,9.6993364E-2,-3.0439192E-1,-1.8440834E-1,2.715899E-1,-2.9520148E-1,8.178442E-2,1.567903E-2,-2.899246E-1,1.0309467E-1,-2.7095106E-1,2.2782667E-1,-1.6286765E-1,2.660378E-1,-2.5559127E-1,3.850142E-1,-9.1053955E-2,-4.7223764E-3,-2.835968E-1,-1.4977923E-1,1.9155495E-1,7.6808386E-2,-2.4874295E-1,-8.568916E-2,2.5036398E-1,2.8880563E-1,-1.3784364E-1,1.4796768E-1,-2.5873694E-1,2.173966E-1,-1.2834573E-1,-2.505743E-1,5.2418314E-2,-8.293276E-2,2.4383071E-1,2.3100011E-1,-2.446817E-1,2.4930681E-1,-1.05864204E-1,-3.173964E-1,2.8616244E-2],"categories":[],"categories_nodes":[],"categories_segments":[],"categories_sizes":[],"default_left":[0,0,0,0,0,0,0,0,0,0,0,0,0,0,0,0,0,0,0,0,0,0,0,0,0,0,0,0,0,0,0,0,0,0,0,0,0,0,0,0,0,0,0,0,0,0,0,0,0,0,0,0,0,0,0,0,0,0,0,0,0,0,0,0,0,0,0,0,0,0,0,0,0,0,0,0,0,0,0,0,0,0,0,0,0,0,0,0,0,0,0,0,0,0,0,0,0,0,0,0,0,0,0,0,0,0,0,0,0,0,0,0,0,0,0,0,0,0,0],"id":12,"left_children":[1,3,5,7,9,11,13,15,17,19,21,23,25,27,29,31,33,35,37,39,41,43,45,47,49,51,53,55,57,59,61,63,65,67,69,71,73,75,77,79,-1,-1,-1,81,83,-1,85,87,89,91,93,95,97,99,101,103,105,107,109,111,113,115,117,-1,-1,-1,-1,-1,-1,-1,-1,-1,-1,-1,-1,-1,-1,-1,-1,-1,-1,-1,-1,-1,-1,-1,-1,-1,-1,-1,-1,-1,-1,-1,-1,-1,-1,-1,-1,-1,-1,-1,-1,-1,-1,-1,-1,-1,-1,-1,-1,-1,-1,-1,-1,-1,-1,-1,-1],"loss_changes":[1.3395299E2,9.2917915E1,9.202549E1,5.6369995E1,1.8523262E1,4.806632E1,5.0616425E1,2.4346844E1,2.8374146E1,1.3219715E1,1.2953339E1,2.5339695E1,4.6689495E1,2.2679209E1,2.8220322E1,1.1225324E1,1.7909275E1,2.2182583E1,1.6114532E1,2.7497635E0,9.0519476E-1,1.0488293E1,1.7298486E0,1.7265892E1,1.6334335E1,1.3290344E1,2.6563133E1,8.159809E0,1.40606985E1,2.0930176E1,7.3600397E0,6.4378414E0,1.8715668E0,4.153276E0,7.6128883E0,1.0374912E1,1.1620117E1,8.176224E0,1.3879591E1,2.5747528E0,0E0,0E0,0E0,5.188381E0,1.7580025E0,0E0,9.8600435E-1,3.151112E0,5.8198767E0,8.8300705E0,1.2855433E1,5.223734E0,9.039598E0,9.693492E0,2.0404305E1,2.4528532E0,7.287819E0,1.0187191E1,5.6581364E0,2.1455917E1,6.258546E0,5.172266E0,2.0049295E0,0E0,0E0,0E0,0E0,0E0,0E0,0E0,0E0,0E0,0E0,0E0,0E0,0E0,0E0,0E0,0E0,0E0,0E0,0E0,0E0,0E0,0E0,0E0,0E0,0E0,0E0,0E0,0E0,0E0,0E0,0E0,0E0,0E0,0E0,0E0,0E0,0E0,0E0,0E0,0E0,0E0,0E0,0E0,0E0,0E0,0E0,0E0,0E0,0E0,0E0,0E0,0E0,0E0,0E0,0E0,0E0],"parents":[2147483647,0,0,1,1,2,2,3,3,4,4,5,5,6,6,7,7,8,8,9,9,10,10,11,11,12,12,13,13,14,14,15,15,16,16,17,17,18,18,19,19,20,20,21,21,22,22,23,23,24,24,25,25,26,26,27,27,28,28,29,29,30,30,31,31,32,32,33,33,34,34,35,35,36,36,37,37,38,38,39,39,43,43,44,44,46,46,47,47,48,48,49,49,50,50,51,51,52,52,53,53,54,54,55,55,56,56,57,57,58,58,59,59,60,60,61,61,62,62],"right_children":[2,4,6,8,10,12,14,16,18,20,22,24,26,28,30,32,34,36,38,40,42,44,46,48,50,52,54,56,58,60,62,64,66,68,70,72,74,76,78,80,-1,-1,-1,82,84,-1,86,88,90,92,94,96,98,100,102,104,106,108,110,112,114,116,118,-1,-1,-1,-1,-1,-1,-1,-1,-1,-1,-1,-1,-1,-1,-1,-1,-1,-1,-1,-1,-1,-1,-1,-1,-1,-1,-1,-1,-1,-1,-1,-1,-1,-1,-1,-1,-1,-1,-1,-1,-1,-1,-1,-1,-1,-1,-1,-1,-1,-1,-1,-1,-1,-1,-1,-1],"split_conditions":[-2.0497896E-2,6.042374E-2,1.1945692E-2,-5.635497E-2,-1.120162E-2,1.2452417E-2,-6.0160425E-3,-2.3284387E-3,-2.4867069E-2,7.988923E-2,6.5822184E-2,-5.8846205E-2,4.358821E-3,-4.10728E-3,6.233796E-2,-4.9543167E-3,-2.6930118E-2,2.2902668E-2,1.6442748E-2,5.711395E-2,-2.2587737E-2,5.9983663E-2,-3.7238706E-2,-1.4401723E-2,3.045375E-2,2.3559725E-2,-5.5805907E-2,-1.2506854E-32,1.8029009E-3,